/* This file was automatically generated */
#ifndef IMPULSE_DATA_H
#define IMPULSE_DATA_H
const int PC_KERNEL_SIZE = 2048;
const int PC_KERNEL_NUMBER = 6;
const double pc_kernels[][2048] = {
    {
        /* 01-glasgow.wav */
        0.001495361328125,
        0.001251220703125,
        0.002319335937500,
        0.005187988281250,
        0.004425048828125,
        0.000915527343750,
        -0.009368896484375,
        -0.019226074218750,
        -0.049591064453125,
        -0.081634521484375,
        -0.132904052734375,
        -0.149139404296875,
        -0.169647216796875,
        -0.152709960937500,
        -0.149017333984375,
        -0.142913818359375,
        -0.192626953125000,
        -0.287322998046875,
        -0.370330810546875,
        -0.474456787109375,
        -0.461303710937500,
        -0.449005126953125,
        -0.322021484375000,
        -0.298126220703125,
        -0.216308593750000,
        -0.189483642578125,
        -0.138916015625000,
        -0.017272949218750,
        0.088317871093750,
        0.246582031250000,
        0.328338623046875,
        0.418792724609375,
        0.463409423828125,
        0.548461914062500,
        0.652282714843750,
        0.767395019531250,
        0.887298583984375,
        0.973388671875000,
        0.999969482421875,
        0.963745117187500,
        0.905914306640625,
        0.817718505859375,
        0.735107421875000,
        0.694976806640625,
        0.641510009765625,
        0.578887939453125,
        0.478759765625000,
        0.353332519531250,
        0.220092773437500,
        0.100982666015625,
        0.029083251953125,
        -0.010528564453125,
        -0.035705566406250,
        -0.079406738281250,
        -0.134765625000000,
        -0.181701660156250,
        -0.222045898437500,
        -0.271667480468750,
        -0.300292968750000,
        -0.343627929687500,
        -0.391235351562500,
        -0.440887451171875,
        -0.475311279296875,
        -0.494384765625000,
        -0.506988525390625,
        -0.513793945312500,
        -0.525177001953125,
        -0.555236816406250,
        -0.585296630859375,
        -0.610687255859375,
        -0.635955810546875,
        -0.651947021484375,
        -0.683532714843750,
        -0.716186523437500,
        -0.759918212890625,
        -0.791229248046875,
        -0.800384521484375,
        -0.768310546875000,
        -0.691894531250000,
        -0.614196777343750,
        -0.556091308593750,
        -0.536987304687500,
        -0.544219970703125,
        -0.544555664062500,
        -0.515502929687500,
        -0.455108642578125,
        -0.368347167968750,
        -0.276367187500000,
        -0.193237304687500,
        -0.131622314453125,
        -0.075012207031250,
        -0.018554687500000,
        0.047760009765625,
        0.130004882812500,
        0.212524414062500,
        0.273559570312500,
        0.319549560546875,
        0.363861083984375,
        0.406433105468750,
        0.469146728515625,
        0.536956787109375,
        0.618560791015625,
        0.684020996093750,
        0.725585937500000,
        0.739776611328125,
        0.727813720703125,
        0.705230712890625,
        0.677734375000000,
        0.652618408203125,
        0.626922607421875,
        0.584564208984375,
        0.517272949218750,
        0.430908203125000,
        0.321166992187500,
        0.218414306640625,
        0.124023437500000,
        0.058410644531250,
        0.014617919921875,
        -0.015930175781250,
        -0.030120849609375,
        -0.032257080078125,
        -0.012420654296875,
        0.011413574218750,
        0.044189453125000,
        0.067230224609375,
        0.081054687500000,
        0.087402343750000,
        0.110961914062500,
        0.156372070312500,
        0.224670410156250,
        0.301727294921875,
        0.364196777343750,
        0.407531738281250,
        0.412322998046875,
        0.396514892578125,
        0.363952636718750,
        0.326995849609375,
        0.290924072265625,
        0.263458251953125,
        0.241455078125000,
        0.214843750000000,
        0.173583984375000,
        0.118988037109375,
        0.053161621093750,
        -0.015777587890625,
        -0.075042724609375,
        -0.125915527343750,
        -0.162261962890625,
        -0.198547363281250,
        -0.234161376953125,
        -0.267669677734375,
        -0.291809082031250,
        -0.309967041015625,
        -0.317779541015625,
        -0.319793701171875,
        -0.321746826171875,
        -0.334503173828125,
        -0.359588623046875,
        -0.388885498046875,
        -0.423675537109375,
        -0.452270507812500,
        -0.478271484375000,
        -0.493560791015625,
        -0.505126953125000,
        -0.512573242187500,
        -0.514984130859375,
        -0.504974365234375,
        -0.484771728515625,
        -0.458801269531250,
        -0.426605224609375,
        -0.386505126953125,
        -0.342041015625000,
        -0.295928955078125,
        -0.243255615234375,
        -0.193542480468750,
        -0.143341064453125,
        -0.101715087890625,
        -0.062561035156250,
        -0.027130126953125,
        0.004394531250000,
        0.026214599609375,
        0.043518066406250,
        0.058074951171875,
        0.075286865234375,
        0.101928710937500,
        0.135833740234375,
        0.179229736328125,
        0.212463378906250,
        0.243041992187500,
        0.266601562500000,
        0.292938232421875,
        0.318511962890625,
        0.345245361328125,
        0.368957519531250,
        0.382751464843750,
        0.390960693359375,
        0.391540527343750,
        0.394195556640625,
        0.391754150390625,
        0.386077880859375,
        0.371429443359375,
        0.354797363281250,
        0.329986572265625,
        0.305267333984375,
        0.280548095703125,
        0.258575439453125,
        0.236022949218750,
        0.210998535156250,
        0.190612792968750,
        0.170410156250000,
        0.157440185546875,
        0.146301269531250,
        0.143951416015625,
        0.134582519531250,
        0.120056152343750,
        0.093597412109375,
        0.059295654296875,
        0.011932373046875,
        -0.044006347656250,
        -0.102142333984375,
        -0.151000976562500,
        -0.188720703125000,
        -0.217803955078125,
        -0.240020751953125,
        -0.268798828125000,
        -0.305023193359375,
        -0.349182128906250,
        -0.388000488281250,
        -0.420257568359375,
        -0.442871093750000,
        -0.462280273437500,
        -0.474822998046875,
        -0.483489990234375,
        -0.480468750000000,
        -0.465240478515625,
        -0.437683105468750,
        -0.404357910156250,
        -0.371429443359375,
        -0.344970703125000,
        -0.324462890625000,
        -0.296600341796875,
        -0.272979736328125,
        -0.238861083984375,
        -0.209655761718750,
        -0.171875000000000,
        -0.140350341796875,
        -0.098846435546875,
        -0.043609619140625,
        0.005401611328125,
        0.061553955078125,
        0.100372314453125,
        0.132873535156250,
        0.151062011718750,
        0.170532226562500,
        0.196807861328125,
        0.235412597656250,
        0.283050537109375,
        0.322998046875000,
        0.356109619140625,
        0.370849609375000,
        0.369537353515625,
        0.350250244140625,
        0.328491210937500,
        0.300506591796875,
        0.270172119140625,
        0.243774414062500,
        0.217041015625000,
        0.192535400390625,
        0.167938232421875,
        0.145782470703125,
        0.127990722656250,
        0.113250732421875,
        0.103424072265625,
        0.101318359375000,
        0.104675292968750,
        0.116699218750000,
        0.129913330078125,
        0.151031494140625,
        0.174468994140625,
        0.195648193359375,
        0.214904785156250,
        0.230224609375000,
        0.240173339843750,
        0.243072509765625,
        0.244903564453125,
        0.242279052734375,
        0.232513427734375,
        0.209320068359375,
        0.176696777343750,
        0.133911132812500,
        0.091094970703125,
        0.049224853515625,
        0.012847900390625,
        -0.019927978515625,
        -0.055084228515625,
        -0.092041015625000,
        -0.132293701171875,
        -0.167633056640625,
        -0.199554443359375,
        -0.224884033203125,
        -0.247161865234375,
        -0.268859863281250,
        -0.297332763671875,
        -0.323547363281250,
        -0.347900390625000,
        -0.361450195312500,
        -0.361633300781250,
        -0.351135253906250,
        -0.332000732421875,
        -0.314361572265625,
        -0.298706054687500,
        -0.290405273437500,
        -0.281585693359375,
        -0.273437500000000,
        -0.260131835937500,
        -0.242584228515625,
        -0.216583251953125,
        -0.189025878906250,
        -0.159057617187500,
        -0.122924804687500,
        -0.083801269531250,
        -0.040588378906250,
        0.000335693359375,
        0.041778564453125,
        0.078552246093750,
        0.110382080078125,
        0.135894775390625,
        0.158874511718750,
        0.177947998046875,
        0.196105957031250,
        0.210876464843750,
        0.226806640625000,
        0.240447998046875,
        0.247863769531250,
        0.252349853515625,
        0.249328613281250,
        0.246215820312500,
        0.238647460937500,
        0.233459472656250,
        0.228912353515625,
        0.227874755859375,
        0.227294921875000,
        0.227447509765625,
        0.225738525390625,
        0.216156005859375,
        0.199462890625000,
        0.173858642578125,
        0.145202636718750,
        0.110229492187500,
        0.078948974609375,
        0.047302246093750,
        0.018524169921875,
        -0.012481689453125,
        -0.045501708984375,
        -0.078643798828125,
        -0.113494873046875,
        -0.145202636718750,
        -0.173156738281250,
        -0.194824218750000,
        -0.212249755859375,
        -0.225097656250000,
        -0.235565185546875,
        -0.239929199218750,
        -0.242706298828125,
        -0.237792968750000,
        -0.228668212890625,
        -0.210235595703125,
        -0.187835693359375,
        -0.162139892578125,
        -0.136749267578125,
        -0.115142822265625,
        -0.098907470703125,
        -0.087127685546875,
        -0.073638916015625,
        -0.058532714843750,
        -0.038604736328125,
        -0.018188476562500,
        0.001770019531250,
        0.014221191406250,
        0.018768310546875,
        0.015380859375000,
        0.006500244140625,
        -0.004821777343750,
        -0.018615722656250,
        -0.030395507812500,
        -0.040893554687500,
        -0.047760009765625,
        -0.055633544921875,
        -0.060333251953125,
        -0.064880371093750,
        -0.066986083984375,
        -0.069061279296875,
        -0.066467285156250,
        -0.061309814453125,
        -0.053955078125000,
        -0.045043945312500,
        -0.037780761718750,
        -0.031097412109375,
        -0.029632568359375,
        -0.028350830078125,
        -0.028839111328125,
        -0.026428222656250,
        -0.022918701171875,
        -0.014068603515625,
        0.000305175781250,
        0.018066406250000,
        0.041900634765625,
        0.065887451171875,
        0.095336914062500,
        0.125640869140625,
        0.156738281250000,
        0.186706542968750,
        0.215759277343750,
        0.239013671875000,
        0.257080078125000,
        0.267669677734375,
        0.270446777343750,
        0.267517089843750,
        0.257843017578125,
        0.245147705078125,
        0.227691650390625,
        0.207489013671875,
        0.181396484375000,
        0.155029296875000,
        0.124847412109375,
        0.096801757812500,
        0.068054199218750,
        0.043243408203125,
        0.018676757812500,
        -0.005859375000000,
        -0.028198242187500,
        -0.048339843750000,
        -0.062561035156250,
        -0.072937011718750,
        -0.077514648437500,
        -0.078704833984375,
        -0.077209472656250,
        -0.075744628906250,
        -0.074615478515625,
        -0.074890136718750,
        -0.073852539062500,
        -0.073211669921875,
        -0.068634033203125,
        -0.062103271484375,
        -0.054870605468750,
        -0.048004150390625,
        -0.043365478515625,
        -0.038757324218750,
        -0.036560058593750,
        -0.032257080078125,
        -0.028442382812500,
        -0.024139404296875,
        -0.021697998046875,
        -0.019470214843750,
        -0.018005371093750,
        -0.015838623046875,
        -0.013793945312500,
        -0.010620117187500,
        -0.005920410156250,
        0.000915527343750,
        0.008819580078125,
        0.017242431640625,
        0.025909423828125,
        0.030517578125000,
        0.031921386718750,
        0.028015136718750,
        0.021026611328125,
        0.010101318359375,
        -0.003662109375000,
        -0.018096923828125,
        -0.032623291015625,
        -0.045318603515625,
        -0.056854248046875,
        -0.065002441406250,
        -0.070251464843750,
        -0.072204589843750,
        -0.073944091796875,
        -0.074432373046875,
        -0.076477050781250,
        -0.080810546875000,
        -0.086242675781250,
        -0.089874267578125,
        -0.091674804687500,
        -0.091918945312500,
        -0.092010498046875,
        -0.092834472656250,
        -0.095458984375000,
        -0.099243164062500,
        -0.101837158203125,
        -0.102844238281250,
        -0.100982666015625,
        -0.098876953125000,
        -0.094543457031250,
        -0.088439941406250,
        -0.079132080078125,
        -0.066864013671875,
        -0.049224853515625,
        -0.026947021484375,
        -0.001892089843750,
        0.026580810546875,
        0.053833007812500,
        0.082824707031250,
        0.109893798828125,
        0.137725830078125,
        0.163299560546875,
        0.186645507812500,
        0.203735351562500,
        0.213897705078125,
        0.216949462890625,
        0.212921142578125,
        0.204284667968750,
        0.190124511718750,
        0.174407958984375,
        0.154144287109375,
        0.130767822265625,
        0.103179931640625,
        0.074951171875000,
        0.044250488281250,
        0.015014648437500,
        -0.014526367187500,
        -0.040161132812500,
        -0.063171386718750,
        -0.082031250000000,
        -0.096832275390625,
        -0.107147216796875,
        -0.112609863281250,
        -0.115356445312500,
        -0.112304687500000,
        -0.108215332031250,
        -0.101470947265625,
        -0.094543457031250,
        -0.086090087890625,
        -0.077911376953125,
        -0.070709228515625,
        -0.063781738281250,
        -0.057678222656250,
        -0.051391601562500,
        -0.046112060546875,
        -0.039581298828125,
        -0.033569335937500,
        -0.027770996093750,
        -0.024810791015625,
        -0.023071289062500,
        -0.020721435546875,
        -0.019348144531250,
        -0.016296386718750,
        -0.013061523437500,
        -0.008239746093750,
        -0.004882812500000,
        -0.001678466796875,
        -0.000396728515625,
        0.000122070312500,
        -0.000549316406250,
        -0.002136230468750,
        -0.003295898437500,
        -0.004180908203125,
        -0.005737304687500,
        -0.007598876953125,
        -0.009460449218750,
        -0.010894775390625,
        -0.011962890625000,
        -0.011901855468750,
        -0.009887695312500,
        -0.006347656250000,
        -0.001403808593750,
        0.004241943359375,
        0.012115478515625,
        0.019989013671875,
        0.028320312500000,
        0.035369873046875,
        0.043792724609375,
        0.051269531250000,
        0.057586669921875,
        0.064056396484375,
        0.070098876953125,
        0.074310302734375,
        0.076873779296875,
        0.079559326171875,
        0.080993652343750,
        0.082336425781250,
        0.082733154296875,
        0.082397460937500,
        0.080871582031250,
        0.078460693359375,
        0.076507568359375,
        0.074645996093750,
        0.074279785156250,
        0.074554443359375,
        0.077392578125000,
        0.080657958984375,
        0.083831787109375,
        0.084716796875000,
        0.083770751953125,
        0.082183837890625,
        0.078033447265625,
        0.073699951171875,
        0.066986083984375,
        0.059417724609375,
        0.048126220703125,
        0.034027099609375,
        0.016876220703125,
        -0.001861572265625,
        -0.022247314453125,
        -0.041381835937500,
        -0.059661865234375,
        -0.075469970703125,
        -0.091796875000000,
        -0.104858398437500,
        -0.116210937500000,
        -0.124877929687500,
        -0.130126953125000,
        -0.132202148437500,
        -0.131561279296875,
        -0.130310058593750,
        -0.126586914062500,
        -0.121337890625000,
        -0.113189697265625,
        -0.103027343750000,
        -0.091674804687500,
        -0.079895019531250,
        -0.070007324218750,
        -0.061981201171875,
        -0.057006835937500,
        -0.053253173828125,
        -0.050598144531250,
        -0.048339843750000,
        -0.046051025390625,
        -0.042297363281250,
        -0.038299560546875,
        -0.033996582031250,
        -0.029724121093750,
        -0.025726318359375,
        -0.021087646484375,
        -0.017089843750000,
        -0.011688232421875,
        -0.006530761718750,
        0.000213623046875,
        0.005828857421875,
        0.013153076171875,
        0.018554687500000,
        0.024353027343750,
        0.027648925781250,
        0.030700683593750,
        0.032226562500000,
        0.032531738281250,
        0.031646728515625,
        0.031066894531250,
        0.030426025390625,
        0.028625488281250,
        0.026306152343750,
        0.022613525390625,
        0.018798828125000,
        0.014373779296875,
        0.010284423828125,
        0.006774902343750,
        0.004028320312500,
        0.002929687500000,
        0.003021240234375,
        0.004608154296875,
        0.006866455078125,
        0.010467529296875,
        0.015106201171875,
        0.020935058593750,
        0.028717041015625,
        0.035766601562500,
        0.042846679687500,
        0.049896240234375,
        0.055023193359375,
        0.060150146484375,
        0.062713623046875,
        0.064941406250000,
        0.065216064453125,
        0.064422607421875,
        0.062194824218750,
        0.059539794921875,
        0.055023193359375,
        0.049255371093750,
        0.042724609375000,
        0.035217285156250,
        0.027587890625000,
        0.019592285156250,
        0.011993408203125,
        0.005187988281250,
        -0.002471923828125,
        -0.010040283203125,
        -0.018035888671875,
        -0.026916503906250,
        -0.036499023437500,
        -0.045349121093750,
        -0.053405761718750,
        -0.060028076171875,
        -0.066101074218750,
        -0.071014404296875,
        -0.075317382812500,
        -0.078674316406250,
        -0.081176757812500,
        -0.082458496093750,
        -0.081634521484375,
        -0.079193115234375,
        -0.073577880859375,
        -0.065002441406250,
        -0.054290771484375,
        -0.041992187500000,
        -0.028564453125000,
        -0.014556884765625,
        -0.001678466796875,
        0.010192871093750,
        0.020477294921875,
        0.029693603515625,
        0.037689208984375,
        0.045074462890625,
        0.051177978515625,
        0.056701660156250,
        0.060058593750000,
        0.061584472656250,
        0.060058593750000,
        0.057556152343750,
        0.052825927734375,
        0.046722412109375,
        0.040618896484375,
        0.033813476562500,
        0.027832031250000,
        0.021820068359375,
        0.017456054687500,
        0.014617919921875,
        0.012542724609375,
        0.011138916015625,
        0.010131835937500,
        0.008605957031250,
        0.007812500000000,
        0.006408691406250,
        0.006134033203125,
        0.005950927734375,
        0.006042480468750,
        0.005798339843750,
        0.005065917968750,
        0.003417968750000,
        0.000335693359375,
        -0.002624511718750,
        -0.005981445312500,
        -0.008880615234375,
        -0.012268066406250,
        -0.014282226562500,
        -0.015716552734375,
        -0.016693115234375,
        -0.016387939453125,
        -0.015258789062500,
        -0.012939453125000,
        -0.010437011718750,
        -0.007934570312500,
        -0.004852294921875,
        -0.002319335937500,
        -0.000030517578125,
        0.001739501953125,
        0.002777099609375,
        0.002197265625000,
        0.000549316406250,
        -0.002624511718750,
        -0.006622314453125,
        -0.011505126953125,
        -0.017242431640625,
        -0.022949218750000,
        -0.028869628906250,
        -0.035247802734375,
        -0.040679931640625,
        -0.045989990234375,
        -0.049133300781250,
        -0.051116943359375,
        -0.050476074218750,
        -0.048309326171875,
        -0.043792724609375,
        -0.037292480468750,
        -0.028808593750000,
        -0.019287109375000,
        -0.008270263671875,
        0.003204345703125,
        0.015350341796875,
        0.028289794921875,
        0.040069580078125,
        0.051788330078125,
        0.062042236328125,
        0.070739746093750,
        0.077117919921875,
        0.081787109375000,
        0.084259033203125,
        0.085174560546875,
        0.083984375000000,
        0.080718994140625,
        0.075469970703125,
        0.068817138671875,
        0.060974121093750,
        0.052551269531250,
        0.044158935546875,
        0.035369873046875,
        0.028198242187500,
        0.020019531250000,
        0.012817382812500,
        0.005157470703125,
        -0.003875732421875,
        -0.011810302734375,
        -0.020721435546875,
        -0.027709960937500,
        -0.035614013671875,
        -0.042266845703125,
        -0.049011230468750,
        -0.053680419921875,
        -0.057952880859375,
        -0.060607910156250,
        -0.062591552734375,
        -0.063232421875000,
        -0.063140869140625,
        -0.062469482421875,
        -0.061431884765625,
        -0.059631347656250,
        -0.057281494140625,
        -0.054229736328125,
        -0.051422119140625,
        -0.048767089843750,
        -0.045562744140625,
        -0.041931152343750,
        -0.038848876953125,
        -0.036834716796875,
        -0.035980224609375,
        -0.035430908203125,
        -0.035644531250000,
        -0.035186767578125,
        -0.035278320312500,
        -0.033721923828125,
        -0.033111572265625,
        -0.030731201171875,
        -0.029022216796875,
        -0.025512695312500,
        -0.022735595703125,
        -0.019378662109375,
        -0.015106201171875,
        -0.010467529296875,
        -0.004516601562500,
        0.001190185546875,
        0.008148193359375,
        0.015258789062500,
        0.021453857421875,
        0.027740478515625,
        0.033721923828125,
        0.039978027343750,
        0.045257568359375,
        0.049865722656250,
        0.052703857421875,
        0.054656982421875,
        0.054901123046875,
        0.054382324218750,
        0.052185058593750,
        0.049987792968750,
        0.046691894531250,
        0.043884277343750,
        0.040008544921875,
        0.036956787109375,
        0.033721923828125,
        0.031890869140625,
        0.029785156250000,
        0.029327392578125,
        0.029418945312500,
        0.029510498046875,
        0.031158447265625,
        0.032470703125000,
        0.033447265625000,
        0.034576416015625,
        0.035705566406250,
        0.036437988281250,
        0.036499023437500,
        0.036529541015625,
        0.035614013671875,
        0.033905029296875,
        0.031036376953125,
        0.027862548828125,
        0.023651123046875,
        0.019287109375000,
        0.014343261718750,
        0.009094238281250,
        0.003509521484375,
        -0.002410888671875,
        -0.008209228515625,
        -0.013488769531250,
        -0.018005371093750,
        -0.022827148437500,
        -0.027191162109375,
        -0.031127929687500,
        -0.034515380859375,
        -0.037719726562500,
        -0.040344238281250,
        -0.042907714843750,
        -0.044708251953125,
        -0.046905517578125,
        -0.047637939453125,
        -0.048797607421875,
        -0.048675537109375,
        -0.048583984375000,
        -0.046875000000000,
        -0.044494628906250,
        -0.042205810546875,
        -0.038024902343750,
        -0.035400390625000,
        -0.031250000000000,
        -0.027648925781250,
        -0.022979736328125,
        -0.017669677734375,
        -0.011932373046875,
        -0.005676269531250,
        0.000091552734375,
        0.005737304687500,
        0.011199951171875,
        0.015777587890625,
        0.019958496093750,
        0.023376464843750,
        0.025482177734375,
        0.027313232421875,
        0.028350830078125,
        0.028442382812500,
        0.027496337890625,
        0.026000976562500,
        0.023925781250000,
        0.021911621093750,
        0.019927978515625,
        0.017578125000000,
        0.015258789062500,
        0.013214111328125,
        0.011413574218750,
        0.008972167968750,
        0.007476806640625,
        0.005798339843750,
        0.004241943359375,
        0.002502441406250,
        0.000396728515625,
        -0.001159667968750,
        -0.003356933593750,
        -0.004821777343750,
        -0.006683349609375,
        -0.008270263671875,
        -0.009918212890625,
        -0.011383056640625,
        -0.013000488281250,
        -0.014343261718750,
        -0.016204833984375,
        -0.016815185546875,
        -0.018432617187500,
        -0.019470214843750,
        -0.020660400390625,
        -0.020812988281250,
        -0.020507812500000,
        -0.019836425781250,
        -0.018249511718750,
        -0.017120361328125,
        -0.015197753906250,
        -0.013580322265625,
        -0.011718750000000,
        -0.010070800781250,
        -0.007446289062500,
        -0.005523681640625,
        -0.003204345703125,
        -0.001037597656250,
        0.001068115234375,
        0.003967285156250,
        0.006622314453125,
        0.008483886718750,
        0.011016845703125,
        0.012969970703125,
        0.015106201171875,
        0.017639160156250,
        0.019226074218750,
        0.020782470703125,
        0.021453857421875,
        0.022796630859375,
        0.023468017578125,
        0.024139404296875,
        0.024597167968750,
        0.025024414062500,
        0.024780273437500,
        0.024353027343750,
        0.023315429687500,
        0.022003173828125,
        0.020355224609375,
        0.017395019531250,
        0.014526367187500,
        0.010620117187500,
        0.007080078125000,
        0.003234863281250,
        -0.000152587890625,
        -0.004394531250000,
        -0.007385253906250,
        -0.010559082031250,
        -0.013031005859375,
        -0.015991210937500,
        -0.017883300781250,
        -0.019866943359375,
        -0.021850585937500,
        -0.023437500000000,
        -0.024169921875000,
        -0.025054931640625,
        -0.025115966796875,
        -0.025207519531250,
        -0.023559570312500,
        -0.022430419921875,
        -0.020721435546875,
        -0.019104003906250,
        -0.017456054687500,
        -0.016143798828125,
        -0.014678955078125,
        -0.013366699218750,
        -0.011444091796875,
        -0.009796142578125,
        -0.008392333984375,
        -0.007080078125000,
        -0.006469726562500,
        -0.006072998046875,
        -0.006591796875000,
        -0.006500244140625,
        -0.007202148437500,
        -0.007629394531250,
        -0.008514404296875,
        -0.009063720703125,
        -0.010742187500000,
        -0.011413574218750,
        -0.013427734375000,
        -0.013671875000000,
        -0.015197753906250,
        -0.015350341796875,
        -0.015991210937500,
        -0.015594482421875,
        -0.014129638671875,
        -0.012237548828125,
        -0.009155273437500,
        -0.004516601562500,
        0.000671386718750,
        0.006835937500000,
        0.013183593750000,
        0.019622802734375,
        0.026062011718750,
        0.032318115234375,
        0.037719726562500,
        0.043304443359375,
        0.047393798828125,
        0.052001953125000,
        0.054534912109375,
        0.057312011718750,
        0.058563232421875,
        0.058898925781250,
        0.057464599609375,
        0.055480957031250,
        0.051910400390625,
        0.048309326171875,
        0.043395996093750,
        0.038757324218750,
        0.033721923828125,
        0.028045654296875,
        0.022827148437500,
        0.016174316406250,
        0.010772705078125,
        0.004730224609375,
        -0.000885009765625,
        -0.005920410156250,
        -0.010742187500000,
        -0.014953613281250,
        -0.018585205078125,
        -0.021545410156250,
        -0.024200439453125,
        -0.026214599609375,
        -0.028106689453125,
        -0.029541015625000,
        -0.030670166015625,
        -0.031463623046875,
        -0.032012939453125,
        -0.031738281250000,
        -0.031341552734375,
        -0.030273437500000,
        -0.028747558593750,
        -0.026611328125000,
        -0.024353027343750,
        -0.022369384765625,
        -0.019409179687500,
        -0.016723632812500,
        -0.013793945312500,
        -0.010192871093750,
        -0.006713867187500,
        -0.003204345703125,
        0.000091552734375,
        0.003570556640625,
        0.006408691406250,
        0.008911132812500,
        0.009887695312500,
        0.010986328125000,
        0.010833740234375,
        0.010192871093750,
        0.008850097656250,
        0.007263183593750,
        0.005371093750000,
        0.003051757812500,
        0.000213623046875,
        -0.002807617187500,
        -0.005584716796875,
        -0.009399414062500,
        -0.012786865234375,
        -0.015960693359375,
        -0.018493652343750,
        -0.020904541015625,
        -0.022064208984375,
        -0.023284912109375,
        -0.023590087890625,
        -0.024017333984375,
        -0.023345947265625,
        -0.022491455078125,
        -0.020690917968750,
        -0.019287109375000,
        -0.016571044921875,
        -0.014343261718750,
        -0.011138916015625,
        -0.007843017578125,
        -0.004547119140625,
        -0.001403808593750,
        0.001861572265625,
        0.004608154296875,
        0.007354736328125,
        0.008880615234375,
        0.011108398437500,
        0.012329101562500,
        0.013061523437500,
        0.013458251953125,
        0.013305664062500,
        0.013061523437500,
        0.011871337890625,
        0.011169433593750,
        0.009887695312500,
        0.007934570312500,
        0.006256103515625,
        0.004089355468750,
        0.002105712890625,
        0.000091552734375,
        -0.001739501953125,
        -0.003326416015625,
        -0.004425048828125,
        -0.006225585937500,
        -0.006958007812500,
        -0.007568359375000,
        -0.008026123046875,
        -0.007110595703125,
        -0.006652832031250,
        -0.004882812500000,
        -0.003021240234375,
        -0.000549316406250,
        0.002532958984375,
        0.005432128906250,
        0.008544921875000,
        0.011505126953125,
        0.013610839843750,
        0.016326904296875,
        0.018646240234375,
        0.020721435546875,
        0.022369384765625,
        0.022583007812500,
        0.023376464843750,
        0.023193359375000,
        0.022979736328125,
        0.022033691406250,
        0.020782470703125,
        0.019714355468750,
        0.017517089843750,
        0.015594482421875,
        0.013671875000000,
        0.012237548828125,
        0.010284423828125,
        0.008514404296875,
        0.007232666015625,
        0.005889892578125,
        0.004425048828125,
        0.002746582031250,
        0.001281738281250,
        -0.000335693359375,
        -0.001342773437500,
        -0.002655029296875,
        -0.003601074218750,
        -0.004547119140625,
        -0.005401611328125,
        -0.006286621093750,
        -0.007904052734375,
        -0.008483886718750,
        -0.010070800781250,
        -0.010711669921875,
        -0.011688232421875,
        -0.012268066406250,
        -0.013305664062500,
        -0.013183593750000,
        -0.013305664062500,
        -0.012481689453125,
        -0.012420654296875,
        -0.010803222656250,
        -0.010345458984375,
        -0.009307861328125,
        -0.008361816406250,
        -0.006713867187500,
        -0.005371093750000,
        -0.004150390625000,
        -0.002593994140625,
        -0.001770019531250,
        -0.000854492187500,
        -0.000671386718750,
        -0.000030517578125,
        -0.000030517578125,
        0.000061035156250,
        -0.000915527343750,
        -0.000183105468750,
        -0.000854492187500,
        -0.000549316406250,
        -0.000976562500000,
        -0.000823974609375,
        -0.000640869140625,
        -0.000244140625000,
        -0.000152587890625,
        0.000305175781250,
        0.000396728515625,
        0.000885009765625,
        0.000732421875000,
        0.000518798828125,
        0.000427246093750,
        0.000000000000000,
        -0.000518798828125,
        -0.001068115234375,
        -0.001800537109375,
        -0.002105712890625,
        -0.003051757812500,
        -0.002868652343750,
        -0.003295898437500,
        -0.003234863281250,
        -0.002960205078125,
        -0.002410888671875,
        -0.001495361328125,
        -0.000915527343750,
        0.000854492187500,
        0.001647949218750,
        0.003479003906250,
        0.004791259765625,
        0.007324218750000,
        0.008636474609375,
        0.010162353515625,
        0.011657714843750,
        0.012695312500000,
        0.012756347656250,
        0.013092041015625,
        0.011993408203125,
        0.010986328125000,
        0.009307861328125,
        0.007751464843750,
        0.005950927734375,
        0.003173828125000,
        0.001281738281250,
        -0.001312255859375,
        -0.003784179687500,
        -0.006500244140625,
        -0.008850097656250,
        -0.010772705078125,
        -0.012664794921875,
        -0.014190673828125,
        -0.014709472656250,
        -0.015380859375000,
        -0.015167236328125,
        -0.015197753906250,
        -0.014617919921875,
        -0.013916015625000,
        -0.012939453125000,
        -0.012207031250000,
        -0.010925292968750,
        -0.010589599609375,
        -0.009552001953125,
        -0.008514404296875,
        -0.006866455078125,
        -0.005798339843750,
        -0.004058837890625,
        -0.003417968750000,
        -0.002044677734375,
        -0.001129150390625,
        0.000030517578125,
        0.001251220703125,
        0.002319335937500,
        0.003814697265625,
        0.004943847656250,
        0.006378173828125,
        0.007232666015625,
        0.007965087890625,
        0.008728027343750,
        0.009155273437500,
        0.009063720703125,
        0.008819580078125,
        0.007202148437500,
        0.006622314453125,
        0.005065917968750,
        0.003662109375000,
        0.002105712890625,
        0.001007080078125,
        -0.000701904296875,
        -0.002166748046875,
        -0.003448486328125,
        -0.005187988281250,
        -0.006408691406250,
        -0.007507324218750,
        -0.008178710937500,
        -0.008636474609375,
        -0.008819580078125,
        -0.008331298828125,
        -0.007080078125000,
        -0.006652832031250,
        -0.005035400390625,
        -0.003631591796875,
        -0.002136230468750,
        -0.000762939453125,
        0.000793457031250,
        0.002746582031250,
        0.003875732421875,
        0.005187988281250,
        0.006256103515625,
        0.007171630859375,
        0.007934570312500,
        0.008178710937500,
        0.008666992187500,
        0.008087158203125,
        0.008056640625000,
        0.007232666015625,
        0.006988525390625,
        0.006072998046875,
        0.005798339843750,
        0.004913330078125,
        0.004333496093750,
        0.004028320312500,
        0.003509521484375,
        0.002807617187500,
        0.002227783203125,
        0.001525878906250,
        0.001739501953125,
        0.001708984375000,
        0.001617431640625,
        0.001800537109375,
        0.002349853515625,
        0.003295898437500,
        0.003662109375000,
        0.004791259765625,
        0.005432128906250,
        0.007019042968750,
        0.007415771484375,
        0.008636474609375,
        0.009613037109375,
        0.010223388671875,
        0.011047363281250,
        0.011474609375000,
        0.011535644531250,
        0.011199951171875,
        0.010986328125000,
        0.010345458984375,
        0.009552001953125,
        0.008148193359375,
        0.006896972656250,
        0.005035400390625,
        0.003326416015625,
        0.001861572265625,
        0.000000000000000,
        -0.001434326171875,
        -0.003479003906250,
        -0.004272460937500,
        -0.006530761718750,
        -0.007293701171875,
        -0.008636474609375,
        -0.009338378906250,
        -0.009643554687500,
        -0.009857177734375,
        -0.009002685546875,
        -0.008880615234375,
        -0.007965087890625,
        -0.007537841796875,
        -0.006927490234375,
        -0.006103515625000,
        -0.005218505859375,
        -0.004577636718750,
        -0.003967285156250,
        -0.004058837890625,
        -0.003631591796875,
        -0.003906250000000,
        -0.003845214843750,
        -0.003997802734375,
        -0.004913330078125,
        -0.005401611328125,
        -0.006439208984375,
        -0.006988525390625,
        -0.008087158203125,
        -0.008789062500000,
        -0.009765625000000,
        -0.010437011718750,
        -0.010955810546875,
        -0.011169433593750,
        -0.011871337890625,
        -0.011016845703125,
        -0.011108398437500,
        -0.010681152343750,
        -0.010772705078125,
        -0.009826660156250,
        -0.009368896484375,
        -0.008026123046875,
        -0.007263183593750,
        -0.006256103515625,
        -0.005096435546875,
        -0.004486083984375,
        -0.002716064453125,
        -0.002807617187500,
        -0.001007080078125,
        -0.000976562500000,
        0.000518798828125,
        0.000854492187500,
        0.002258300781250,
        0.002532958984375,
        0.003723144531250,
        0.004302978515625,
        0.005249023437500,
        0.006011962890625,
        0.006591796875000,
        0.007385253906250,
        0.008270263671875,
        0.009063720703125,
        0.009826660156250,
        0.009826660156250,
        0.009948730468750,
        0.010192871093750,
        0.009552001953125,
        0.009246826171875,
        0.009002685546875,
        0.007904052734375,
        0.006774902343750,
        0.005310058593750,
        0.004486083984375,
        0.002655029296875,
        0.001800537109375,
        0.000518798828125,
        -0.000640869140625,
        -0.001434326171875,
        -0.002624511718750,
        -0.002868652343750,
        -0.003356933593750,
        -0.003601074218750,
        -0.004241943359375,
        -0.003814697265625,
        -0.003906250000000,
        -0.003204345703125,
        -0.003173828125000,
        -0.002227783203125,
        -0.002258300781250,
        -0.001708984375000,
        -0.001403808593750,
        -0.001678466796875,
        -0.000915527343750,
        -0.001037597656250,
        -0.000610351562500,
        -0.000518798828125,
        -0.000213623046875,
        0.000061035156250,
        0.000244140625000,
        0.000823974609375,
        0.000762939453125,
        0.000671386718750,
        0.000885009765625,
        0.001281738281250,
        0.001403808593750,
        0.001800537109375,
        0.002288818359375,
        0.002899169921875,
        0.003021240234375,
        0.003448486328125,
        0.003997802734375,
        0.004150390625000,
        0.004272460937500,
        0.003875732421875,
        0.004028320312500,
        0.003784179687500,
        0.003692626953125,
        0.003112792968750,
        0.003204345703125,
        0.002593994140625,
        0.002319335937500,
        0.002441406250000,
        0.002288818359375,
        0.002532958984375,
        0.002899169921875,
        0.002685546875000,
        0.003143310546875,
        0.003082275390625,
        0.004791259765625,
        0.004730224609375,
        0.005645751953125,
        0.005950927734375,
        0.006439208984375,
        0.006500244140625,
        0.006866455078125,
        0.006835937500000,
        0.006958007812500,
        0.006286621093750,
        0.005950927734375,
        0.005523681640625,
        0.005279541015625,
        0.004333496093750,
        0.003601074218750,
        0.002868652343750,
        0.002410888671875,
        0.001342773437500,
        0.000762939453125,
        -0.000244140625000,
        -0.000915527343750,
        -0.001861572265625,
        -0.002288818359375,
        -0.002899169921875,
        -0.003509521484375,
        -0.003601074218750,
        -0.004058837890625,
        -0.004272460937500,
        -0.005157470703125,
        -0.005126953125000,
        -0.005798339843750,
        -0.005920410156250,
        -0.006591796875000,
        -0.006866455078125,
        -0.007110595703125,
        -0.007781982421875,
        -0.007690429687500,
        -0.007843017578125,
        -0.007202148437500,
        -0.007141113281250,
        -0.006866455078125,
        -0.006439208984375,
        -0.005493164062500,
        -0.004730224609375,
        -0.004028320312500,
        -0.002563476562500,
        -0.002258300781250,
        -0.000762939453125,
        -0.000061035156250,
        0.000823974609375,
        0.001525878906250,
        0.002227783203125,
        0.002563476562500,
        0.002563476562500,
        0.003112792968750,
        0.003417968750000,
        0.003784179687500,
        0.004333496093750,
        0.004058837890625,
        0.004089355468750,
        0.003662109375000,
        0.003784179687500,
        0.002777099609375,
        0.002838134765625,
        0.001708984375000,
        0.001556396484375,
        0.000610351562500,
        -0.000061035156250,
        -0.000732421875000,
        -0.001434326171875,
        -0.002258300781250,
        -0.002929687500000,
        -0.003662109375000,
        -0.004272460937500,
        -0.005371093750000,
        -0.006103515625000,
        -0.006774902343750,
        -0.006866455078125,
        -0.007446289062500,
        -0.007720947265625,
        -0.008361816406250,
        -0.008056640625000,
        -0.007965087890625,
        -0.007080078125000,
        -0.007019042968750,
        -0.006530761718750,
        -0.005981445312500,
        -0.005493164062500,
        -0.004760742187500,
        -0.004608154296875,
        -0.003723144531250,
        -0.003753662109375,
        -0.003021240234375,
        -0.002746582031250,
        -0.002197265625000,
        -0.001983642578125,
        -0.001708984375000,
        -0.001983642578125,
        -0.001739501953125,
        -0.001464843750000,
        -0.001312255859375,
        -0.001647949218750,
        -0.001251220703125,
        -0.001281738281250,
        -0.001068115234375,
        -0.000762939453125,
        -0.000732421875000,
        -0.000274658203125,
        0.000061035156250,
        0.000518798828125,
        0.001434326171875,
        0.001892089843750,
        0.002807617187500,
        0.003509521484375,
        0.004028320312500,
        0.004791259765625,
        0.005950927734375,
        0.006164550781250,
        0.007415771484375,
        0.007690429687500,
        0.008483886718750,
        0.008605957031250,
        0.009582519531250,
        0.009887695312500,
        0.010192871093750,
        0.011016845703125,
        0.010833740234375,
        0.011169433593750,
        0.011749267578125,
        0.011322021484375,
        0.011901855468750,
        0.011047363281250,
        0.011932373046875,
        0.010803222656250,
        0.010772705078125,
        0.009704589843750,
        0.008697509765625,
        0.008178710937500,
        0.007385253906250,
        0.006256103515625,
        0.004699707031250,
        0.003601074218750,
        0.002593994140625,
        0.001312255859375,
        -0.000122070312500,
        -0.001556396484375,
        -0.002899169921875,
        -0.003723144531250,
        -0.004821777343750,
        -0.005493164062500,
        -0.007019042968750,
        -0.007751464843750,
        -0.008636474609375,
        -0.008789062500000,
        -0.008850097656250,
        -0.009246826171875,
        -0.009307861328125,
        -0.008789062500000,
        -0.008392333984375,
        -0.007995605468750,
        -0.007202148437500,
        -0.006652832031250,
        -0.006134033203125,
        -0.005187988281250,
        -0.004852294921875,
        -0.003234863281250,
        -0.003265380859375,
        -0.002441406250000,
        -0.002258300781250,
        -0.001159667968750,
        -0.001373291015625,
        -0.001159667968750,
        -0.000885009765625,
        -0.000976562500000,
        -0.000915527343750,
        -0.000549316406250,
        -0.000854492187500,
        -0.000946044921875,
        -0.001129150390625,
        -0.001190185546875,
        -0.001220703125000,
        -0.001220703125000,
        -0.001068115234375,
        -0.000823974609375,
        -0.000732421875000,
        -0.000305175781250,
        0.000030517578125,
        0.000640869140625,
        0.000579833984375,
        0.001190185546875,
        0.001800537109375,
        0.001678466796875,
        0.002380371093750,
        0.002838134765625,
        0.003204345703125,
        0.003448486328125,
        0.003570556640625,
        0.003662109375000,
        0.003997802734375,
        0.003906250000000,
        0.004028320312500,
        0.003570556640625,
        0.004211425781250,
        0.002960205078125,
        0.003204345703125,
        0.002349853515625,
        0.002471923828125,
        0.001312255859375,
        0.001525878906250,
        0.000152587890625,
        0.000183105468750,
        -0.000549316406250,
        -0.001098632812500,
        -0.001647949218750,
        -0.002593994140625,
        -0.002807617187500,
        -0.003173828125000,
        -0.003143310546875,
        -0.003570556640625,
        -0.003936767578125,
        -0.004150390625000,
        -0.004211425781250,
        -0.004119873046875,
        -0.003662109375000,
        -0.003814697265625,
        -0.003509521484375,
        -0.002990722656250,
        -0.002807617187500,
        -0.002563476562500,
        -0.002624511718750,
        -0.002014160156250,
        -0.001861572265625,
        -0.001342773437500,
        -0.001098632812500,
        -0.001037597656250,
        -0.001037597656250,
        -0.000793457031250,
        -0.000701904296875,
        -0.000549316406250,
        -0.000427246093750,
        -0.000823974609375,
        -0.000610351562500,
        -0.000762939453125,
        -0.000732421875000,
        -0.000701904296875,
        -0.000762939453125,
        -0.000488281250000,
        -0.000091552734375,
        -0.000213623046875,
        0.000091552734375,
        0.000366210937500,
        0.000366210937500,
        0.000427246093750,
        0.000518798828125,
        0.000274658203125,
        0.000579833984375,
        0.000518798828125,
        0.000671386718750,
        0.000823974609375,
        0.000732421875000,
        0.000885009765625,
        0.000427246093750,
        0.000335693359375,
        0.000335693359375,
        0.000213623046875,
        0.000579833984375,
        0.000152587890625,
        0.000061035156250,
        0.000091552734375,
        -0.000488281250000,
        -0.000366210937500,
        -0.000335693359375,
        -0.001098632812500,
        -0.001098632812500,
        -0.001556396484375,
        -0.001586914062500,
        -0.001892089843750,
        -0.001861572265625,
        -0.002044677734375,
        -0.002105712890625,
        -0.001586914062500,
        -0.001251220703125,
        -0.001037597656250,
        -0.000732421875000,
        -0.000122070312500,
        0.000335693359375,
        0.000671386718750,
        0.000976562500000,
        0.001373291015625,
        0.002288818359375,
        0.002746582031250,
        0.003570556640625,
        0.004364013671875,
        0.004333496093750,
        0.004760742187500,
        0.005371093750000,
        0.005767822265625,
        0.006317138671875,
        0.006378173828125,
        0.006195068359375,
        0.006530761718750,
        0.006103515625000,
        0.006347656250000,
        0.006317138671875,
        0.005828857421875,
        0.005615234375000,
        0.005279541015625,
        0.004760742187500,
        0.004364013671875,
        0.004333496093750,
        0.004028320312500,
        0.003601074218750,
        0.003143310546875,
        0.002746582031250,
        0.002471923828125,
        0.002288818359375,
        0.002197265625000,
        0.001434326171875,
        0.001342773437500,
        0.001068115234375,
        0.000579833984375,
        0.000244140625000,
        -0.000213623046875,
        -0.000488281250000,
        -0.001312255859375,
        -0.001312255859375,
        -0.001434326171875,
        -0.001556396484375,
        -0.002441406250000,
        -0.002502441406250,
        -0.002899169921875,
        -0.003265380859375,
        -0.003173828125000,
        -0.003662109375000,
        -0.003417968750000,
        -0.003753662109375,
        -0.003723144531250,
        -0.004516601562500,
        -0.004516601562500,
        -0.004699707031250,
        -0.004882812500000,
        -0.005035400390625,
        -0.004821777343750,
        -0.004821777343750,
        -0.005187988281250,
        -0.004455566406250,
        -0.004638671875000,
        -0.004577636718750,
        -0.004425048828125,
        -0.004211425781250,
        -0.003784179687500,
        -0.003662109375000,
        -0.003204345703125,
        -0.003112792968750,
        -0.002960205078125,
        -0.002532958984375,
        -0.001953125000000,
        -0.001800537109375,
        -0.001312255859375,
        -0.001251220703125,
        -0.000854492187500,
        -0.000244140625000,
        -0.000488281250000,
        0.000244140625000,
        0.000518798828125,
        0.000976562500000,
        0.001342773437500,
        0.001525878906250,
        0.001861572265625,
        0.002197265625000,
        0.002014160156250,
        0.002563476562500,
        0.002563476562500,
        0.002441406250000,
        0.002593994140625,
        0.003051757812500,
        0.002960205078125,
        0.003112792968750,
        0.002624511718750,
        0.003173828125000,
        0.002807617187500,
        0.003265380859375,
        0.003021240234375,
        0.003051757812500,
        0.003417968750000,
        0.002960205078125,
        0.002746582031250,
        0.002929687500000,
        0.002960205078125,
        0.002807617187500,
        0.002655029296875,
        0.002624511718750,
        0.002197265625000,
        0.002105712890625,
        0.001739501953125,
        0.001403808593750,
        0.000915527343750,
        0.000305175781250,
        0.000396728515625,
        -0.000579833984375,
        -0.000366210937500,
        -0.001586914062500,
        -0.001403808593750,
        -0.001953125000000,
        -0.002532958984375,
        -0.002288818359375,
        -0.002960205078125,
        -0.003295898437500,
        -0.003479003906250,
        -0.004028320312500,
        -0.003997802734375,
        -0.004058837890625,
        -0.004241943359375,
        -0.003997802734375,
        -0.003814697265625,
        -0.003601074218750,
        -0.003295898437500,
        -0.002899169921875,
        -0.002777099609375,
        -0.002105712890625,
        -0.001861572265625,
        -0.001647949218750,
        -0.000823974609375,
        -0.000640869140625,
        -0.000335693359375,
        0.000183105468750,
        0.000183105468750,
        0.000518798828125,
        0.000549316406250,
        0.001037597656250,
        0.000823974609375,
        0.001403808593750,
        0.001037597656250,
        0.001434326171875,
        0.001281738281250,
        0.001403808593750,
        0.000915527343750,
        0.000946044921875,
        0.001251220703125,
        0.001220703125000,
        0.001159667968750,
        0.000732421875000,
        0.001098632812500,
        0.000732421875000,
        0.001403808593750,
        0.000976562500000,
        0.001342773437500,
        0.001342773437500,
        0.001586914062500,
        0.001770019531250,
        0.001983642578125,
        0.001983642578125,
        0.001983642578125,
        0.002227783203125,
        0.002410888671875,
        0.002532958984375,
        0.002197265625000,
        0.002105712890625,
        0.002258300781250,
        0.002441406250000,
        0.002258300781250,
        0.002471923828125,
        0.002410888671875,
        0.002532958984375,
        0.002563476562500,
        0.001922607421875,
        0.001647949218750,
        0.001251220703125,
        0.001800537109375,
        0.001525878906250,
        0.001525878906250,
        0.001556396484375,
        0.001464843750000,
        0.001647949218750,
        0.000793457031250,
        0.001159667968750,
        0.000213623046875,
        0.000396728515625,
        0.000366210937500,
        0.000305175781250,
        0.000366210937500,
        -0.000091552734375,
        -0.000030517578125,
        -0.000366210937500,
        0.000274658203125,
        -0.000244140625000,
        0.000000000000000,
        -0.000091552734375,
        0.000579833984375,
        0.000091552734375,
        0.000183105468750,
        -0.000213623046875,
        -0.000335693359375,
        0.000305175781250,
        0.000488281250000,
        0.000305175781250,
        0.000701904296875,
        0.000610351562500,
        0.001037597656250,
        0.000885009765625,
        0.000579833984375,
        0.000732421875000,
        0.000549316406250,
        0.000488281250000,
        0.000152587890625,
        0.000122070312500,
        0.000122070312500,
        -0.000396728515625,
        -0.000396728515625,
        -0.000549316406250,
        -0.000549316406250,
        -0.000732421875000,
        -0.000976562500000,
        -0.001129150390625,
        -0.001251220703125,
        -0.001556396484375,
        -0.001556396484375,
        -0.001678466796875,
        -0.001556396484375,
        -0.001953125000000,
        -0.001617431640625,
        -0.001831054687500,
        -0.001586914062500,
        -0.001708984375000,
        -0.001647949218750,
        -0.001647949218750,
        -0.001220703125000,
        -0.001434326171875,
        -0.001037597656250,
        -0.001190185546875,
        -0.000885009765625,
        -0.001007080078125,
        -0.000579833984375,
        -0.000762939453125,
        -0.000244140625000,
        -0.000518798828125,
        -0.000152587890625,
        -0.000213623046875,
        -0.000091552734375,
        -0.000091552734375,
        0.000061035156250,
        0.000091552734375,
        0.000000000000000,
        0.000091552734375,
        0.000122070312500,
        0.000061035156250,
        0.000152587890625,
        0.000061035156250,
        0.000183105468750,
        0.000061035156250,
        0.000091552734375,
        0.000152587890625,
        0.000000000000000,
        0.000244140625000,
        -0.000030517578125,
        0.000183105468750,
        0.000000000000000,
        0.000122070312500,
        -0.000061035156250,
        0.000091552734375,
        -0.000030517578125,
    }, {
        /* 02-colin.wav */
        0.001464843750000,
        -0.000793457031250,
        0.000244140625000,
        0.003814697265625,
        0.005371093750000,
        0.008544921875000,
        0.001647949218750,
        -0.066314697265625,
        -0.209747314453125,
        -0.312774658203125,
        -0.249420166015625,
        -0.086151123046875,
        -0.032592773437500,
        -0.152893066406250,
        -0.281311035156250,
        -0.249389648437500,
        -0.050994873046875,
        0.192687988281250,
        0.343322753906250,
        0.344665527343750,
        0.255584716796875,
        0.177978515625000,
        0.191711425781250,
        0.321075439453125,
        0.446655273437500,
        0.366149902343750,
        0.098541259765625,
        -0.063568115234375,
        0.046630859375000,
        0.201446533203125,
        0.104156494140625,
        -0.164886474609375,
        -0.259704589843750,
        -0.056701660156250,
        0.206451416015625,
        0.290496826171875,
        0.221435546875000,
        0.155395507812500,
        0.147766113281250,
        0.127563476562500,
        0.031005859375000,
        -0.111511230468750,
        -0.206878662109375,
        -0.190063476562500,
        -0.081390380859375,
        0.025054931640625,
        0.074218750000000,
        0.149047851562500,
        0.360748291015625,
        0.640258789062500,
        0.790344238281250,
        0.718414306640625,
        0.490692138671875,
        0.195312500000000,
        -0.113616943359375,
        -0.343536376953125,
        -0.392028808593750,
        -0.304138183593750,
        -0.287872314453125,
        -0.491729736328125,
        -0.800750732421875,
        -0.953674316406250,
        -0.855407714843750,
        -0.676025390625000,
        -0.602142333984375,
        -0.595275878906250,
        -0.519470214843750,
        -0.384887695312500,
        -0.318634033203125,
        -0.351928710937500,
        -0.371093750000000,
        -0.293792724609375,
        -0.180847167968750,
        -0.135162353515625,
        -0.146911621093750,
        -0.129852294921875,
        -0.053039550781250,
        0.026977539062500,
        0.039520263671875,
        -0.011535644531250,
        -0.036224365234375,
        0.051239013671875,
        0.233123779296875,
        0.391937255859375,
        0.399719238281250,
        0.216979980468750,
        -0.057006835937500,
        -0.247070312500000,
        -0.257812500000000,
        -0.131469726562500,
        0.019958496093750,
        0.107330322265625,
        0.088775634765625,
        -0.039916992187500,
        -0.227111816406250,
        -0.367370605468750,
        -0.384033203125000,
        -0.319244384765625,
        -0.294921875000000,
        -0.367340087890625,
        -0.466918945312500,
        -0.471191406250000,
        -0.321441650390625,
        -0.066467285156250,
        0.189910888671875,
        0.343811035156250,
        0.331542968750000,
        0.171356201171875,
        -0.027221679687500,
        -0.127990722656250,
        -0.062194824218750,
        0.133209228515625,
        0.331939697265625,
        0.423248291015625,
        0.428863525390625,
        0.471710205078125,
        0.622253417968750,
        0.822113037109375,
        0.971069335937500,
        0.999938964843750,
        0.893035888671875,
        0.718353271484375,
        0.608520507812500,
        0.623596191406250,
        0.654296875000000,
        0.541717529296875,
        0.284332275390625,
        0.038726806640625,
        -0.068664550781250,
        -0.071228027343750,
        -0.081726074218750,
        -0.142639160156250,
        -0.192291259765625,
        -0.157775878906250,
        -0.060241699218750,
        0.008605957031250,
        0.010925292968750,
        0.021514892578125,
        0.129852294921875,
        0.298522949218750,
        0.388916015625000,
        0.331359863281250,
        0.219604492187500,
        0.200744628906250,
        0.308929443359375,
        0.446166992187500,
        0.489318847656250,
        0.387451171875000,
        0.176513671875000,
        -0.040985107421875,
        -0.140228271484375,
        -0.065887451171875,
        0.104766845703125,
        0.197540283203125,
        0.094268798828125,
        -0.147766113281250,
        -0.348266601562500,
        -0.393615722656250,
        -0.345336914062500,
        -0.323791503906250,
        -0.345092773437500,
        -0.342559814453125,
        -0.296142578125000,
        -0.262573242187500,
        -0.280670166015625,
        -0.319030761718750,
        -0.325775146484375,
        -0.291503906250000,
        -0.240447998046875,
        -0.195098876953125,
        -0.173828125000000,
        -0.187042236328125,
        -0.218536376953125,
        -0.229339599609375,
        -0.185333251953125,
        -0.085235595703125,
        0.031097412109375,
        0.098876953125000,
        0.065460205078125,
        -0.072113037109375,
        -0.252227783203125,
        -0.374755859375000,
        -0.371368408203125,
        -0.254028320312500,
        -0.083831787109375,
        0.081481933593750,
        0.204772949218750,
        0.261627197265625,
        0.252655029296875,
        0.208251953125000,
        0.164306640625000,
        0.130615234375000,
        0.080108642578125,
        -0.022521972656250,
        -0.179138183593750,
        -0.329071044921875,
        -0.377258300781250,
        -0.280883789062500,
        -0.115509033203125,
        -0.028594970703125,
        -0.109069824218750,
        -0.296875000000000,
        -0.446289062500000,
        -0.464263916015625,
        -0.377563476562500,
        -0.266082763671875,
        -0.176116943359375,
        -0.106964111328125,
        -0.041717529296875,
        0.034301757812500,
        0.117797851562500,
        0.184570312500000,
        0.208221435546875,
        0.190765380859375,
        0.157806396484375,
        0.137664794921875,
        0.158386230468750,
        0.230957031250000,
        0.315856933593750,
        0.335632324218750,
        0.256958007812500,
        0.135986328125000,
        0.057952880859375,
        0.044738769531250,
        0.039550781250000,
        -0.014068603515625,
        -0.106384277343750,
        -0.186401367187500,
        -0.219909667968750,
        -0.201629638671875,
        -0.136047363281250,
        -0.038482666015625,
        0.058563232421875,
        0.111541748046875,
        0.086120605468750,
        -0.019134521484375,
        -0.164794921875000,
        -0.291595458984375,
        -0.355529785156250,
        -0.357147216796875,
        -0.335540771484375,
        -0.333465576171875,
        -0.358795166015625,
        -0.372039794921875,
        -0.322723388671875,
        -0.200775146484375,
        -0.053344726562500,
        0.064483642578125,
        0.128662109375000,
        0.143371582031250,
        0.127746582031250,
        0.112152099609375,
        0.112518310546875,
        0.115600585937500,
        0.099609375000000,
        0.064697265625000,
        0.034912109375000,
        0.026672363281250,
        0.031768798828125,
        0.032012939453125,
        0.021911621093750,
        0.011016845703125,
        0.014465332031250,
        0.047332763671875,
        0.107910156250000,
        0.159606933593750,
        0.155578613281250,
        0.085449218750000,
        -0.003814697265625,
        -0.054504394531250,
        -0.051300048828125,
        -0.027343750000000,
        -0.017761230468750,
        -0.029541015625000,
        -0.050048828125000,
        -0.061309814453125,
        -0.039520263671875,
        0.040649414062500,
        0.183807373046875,
        0.351074218750000,
        0.470397949218750,
        0.488494873046875,
        0.414337158203125,
        0.305358886718750,
        0.224060058593750,
        0.198394775390625,
        0.216033935546875,
        0.243713378906250,
        0.250823974609375,
        0.220245361328125,
        0.159057617187500,
        0.102264404296875,
        0.089874267578125,
        0.123565673828125,
        0.157379150390625,
        0.138580322265625,
        0.067932128906250,
        0.008026123046875,
        0.020874023437500,
        0.102172851562500,
        0.189178466796875,
        0.227630615234375,
        0.214172363281250,
        0.184265136718750,
        0.164428710937500,
        0.151885986328125,
        0.126617431640625,
        0.081726074218750,
        0.028106689453125,
        -0.018249511718750,
        -0.046905517578125,
        -0.051300048828125,
        -0.031127929687500,
        -0.002349853515625,
        0.014739990234375,
        0.014068603515625,
        0.008758544921875,
        0.007263183593750,
        0.004730224609375,
        -0.007324218750000,
        -0.034088134765625,
        -0.071624755859375,
        -0.110015869140625,
        -0.133270263671875,
        -0.127105712890625,
        -0.088256835937500,
        -0.032928466796875,
        0.009399414062500,
        0.015655517578125,
        -0.012084960937500,
        -0.053894042968750,
        -0.091766357421875,
        -0.120025634765625,
        -0.137908935546875,
        -0.150390625000000,
        -0.167510986328125,
        -0.193847656250000,
        -0.214019775390625,
        -0.202850341796875,
        -0.155029296875000,
        -0.094512939453125,
        -0.050323486328125,
        -0.019561767578125,
        0.019989013671875,
        0.075714111328125,
        0.130554199218750,
        0.166381835937500,
        0.180816650390625,
        0.180145263671875,
        0.167053222656250,
        0.139831542968750,
        0.101501464843750,
        0.059204101562500,
        0.011718750000000,
        -0.054473876953125,
        -0.146057128906250,
        -0.244140625000000,
        -0.308441162109375,
        -0.311828613281250,
        -0.265594482421875,
        -0.207305908203125,
        -0.170776367187500,
        -0.163818359375000,
        -0.169555664062500,
        -0.162322998046875,
        -0.125244140625000,
        -0.061523437500000,
        0.006805419921875,
        0.047973632812500,
        0.044769287109375,
        0.014312744140625,
        -0.002593994140625,
        0.025329589843750,
        0.090850830078125,
        0.151275634765625,
        0.159210205078125,
        0.098419189453125,
        -0.002532958984375,
        -0.091949462890625,
        -0.127655029296875,
        -0.109680175781250,
        -0.077972412109375,
        -0.075531005859375,
        -0.111999511718750,
        -0.164184570312500,
        -0.202972412109375,
        -0.220550537109375,
        -0.226898193359375,
        -0.234191894531250,
        -0.244354248046875,
        -0.254455566406250,
        -0.255706787109375,
        -0.231628417968750,
        -0.166412353515625,
        -0.065429687500000,
        0.033477783203125,
        0.083984375000000,
        0.072845458984375,
        0.032836914062500,
        0.005310058593750,
        0.004302978515625,
        0.013092041015625,
        0.012084960937500,
        -0.005615234375000,
        -0.034271240234375,
        -0.063507080078125,
        -0.083648681640625,
        -0.088562011718750,
        -0.085968017578125,
        -0.088714599609375,
        -0.103546142578125,
        -0.117645263671875,
        -0.112304687500000,
        -0.082611083984375,
        -0.045166015625000,
        -0.021026611328125,
        -0.017578125000000,
        -0.021972656250000,
        -0.016815185546875,
        0.002716064453125,
        0.025604248046875,
        0.036010742187500,
        0.024902343750000,
        -0.004821777343750,
        -0.040985107421875,
        -0.070251464843750,
        -0.083679199218750,
        -0.074707031250000,
        -0.046417236328125,
        -0.010681152343750,
        0.021545410156250,
        0.050659179687500,
        0.087921142578125,
        0.139739990234375,
        0.195404052734375,
        0.235443115234375,
        0.251037597656250,
        0.253265380859375,
        0.258544921875000,
        0.277130126953125,
        0.305816650390625,
        0.331146240234375,
        0.338256835937500,
        0.322204589843750,
        0.293426513671875,
        0.268707275390625,
        0.259826660156250,
        0.262390136718750,
        0.256134033203125,
        0.222625732421875,
        0.155303955078125,
        0.070587158203125,
        -0.003387451171875,
        -0.045135498046875,
        -0.055938720703125,
        -0.053314208984375,
        -0.054138183593750,
        -0.061706542968750,
        -0.063629150390625,
        -0.044586181640625,
        -0.001129150390625,
        0.053314208984375,
        0.096160888671875,
        0.111999511718750,
        0.105407714843750,
        0.100769042968750,
        0.119384765625000,
        0.162658691406250,
        0.206481933593750,
        0.221466064453125,
        0.195159912109375,
        0.142608642578125,
        0.092193603515625,
        0.064544677734375,
        0.060668945312500,
        0.062591552734375,
        0.050628662109375,
        0.019683837890625,
        -0.014709472656250,
        -0.031066894531250,
        -0.022338867187500,
        -0.001953125000000,
        0.010986328125000,
        0.010406494140625,
        0.006469726562500,
        0.012054443359375,
        0.030181884765625,
        0.050994873046875,
        0.064331054687500,
        0.064300537109375,
        0.052185058593750,
        0.031768798828125,
        0.008178710937500,
        -0.017547607421875,
        -0.048309326171875,
        -0.084320068359375,
        -0.120513916015625,
        -0.147644042968750,
        -0.163604736328125,
        -0.173706054687500,
        -0.184112548828125,
        -0.195007324218750,
        -0.204071044921875,
        -0.209930419921875,
        -0.210205078125000,
        -0.198486328125000,
        -0.168304443359375,
        -0.123809814453125,
        -0.081542968750000,
        -0.058471679687500,
        -0.056640625000000,
        -0.062988281250000,
        -0.065124511718750,
        -0.059387207031250,
        -0.053588867187500,
        -0.056121826171875,
        -0.071258544921875,
        -0.095520019531250,
        -0.120544433593750,
        -0.134613037109375,
        -0.130737304687500,
        -0.112243652343750,
        -0.091888427734375,
        -0.081726074218750,
        -0.080505371093750,
        -0.074218750000000,
        -0.049713134765625,
        -0.008666992187500,
        0.032073974609375,
        0.055328369140625,
        0.054290771484375,
        0.036254882812500,
        0.015106201171875,
        0.002746582031250,
        0.002380371093750,
        0.008850097656250,
        0.013061523437500,
        0.009246826171875,
        -0.002777099609375,
        -0.015808105468750,
        -0.024383544921875,
        -0.026855468750000,
        -0.028717041015625,
        -0.033325195312500,
        -0.042358398437500,
        -0.054840087890625,
        -0.069213867187500,
        -0.084228515625000,
        -0.096527099609375,
        -0.104003906250000,
        -0.105316162109375,
        -0.100524902343750,
        -0.089324951171875,
        -0.070892333984375,
        -0.046752929687500,
        -0.020812988281250,
        0.000000000000000,
        0.013275146484375,
        0.021179199218750,
        0.031433105468750,
        0.048553466796875,
        0.069610595703125,
        0.083679199218750,
        0.079711914062500,
        0.054046630859375,
        0.012176513671875,
        -0.035034179687500,
        -0.079376220703125,
        -0.117004394531250,
        -0.149597167968750,
        -0.178527832031250,
        -0.199584960937500,
        -0.204498291015625,
        -0.185180664062500,
        -0.143249511718750,
        -0.089294433593750,
        -0.036285400390625,
        0.008972167968750,
        0.047698974609375,
        0.082794189453125,
        0.112152099609375,
        0.129913330078125,
        0.131134033203125,
        0.115142822265625,
        0.088409423828125,
        0.059204101562500,
        0.035705566406250,
        0.019805908203125,
        0.008178710937500,
        -0.003906250000000,
        -0.016235351562500,
        -0.024230957031250,
        -0.021484375000000,
        -0.004425048828125,
        0.021820068359375,
        0.048400878906250,
        0.065490722656250,
        0.070922851562500,
        0.068725585937500,
        0.068115234375000,
        0.074920654296875,
        0.087921142578125,
        0.098999023437500,
        0.100219726562500,
        0.089691162109375,
        0.075103759765625,
        0.066467285156250,
        0.071075439453125,
        0.086212158203125,
        0.100891113281250,
        0.103179931640625,
        0.086242675781250,
        0.055816650390625,
        0.024749755859375,
        0.008605957031250,
        0.010223388671875,
        0.019531250000000,
        0.022583007812500,
        0.014160156250000,
        0.004943847656250,
        0.011352539062500,
        0.040679931640625,
        0.084381103515625,
        0.125762939453125,
        0.153564453125000,
        0.166992187500000,
        0.174041748046875,
        0.181884765625000,
        0.191802978515625,
        0.198425292968750,
        0.196380615234375,
        0.187469482421875,
        0.177154541015625,
        0.168365478515625,
        0.154724121093750,
        0.128326416015625,
        0.085968017578125,
        0.037689208984375,
        -0.003417968750000,
        -0.027374267578125,
        -0.035858154296875,
        -0.037506103515625,
        -0.040435791015625,
        -0.048492431640625,
        -0.059020996093750,
        -0.063934326171875,
        -0.057464599609375,
        -0.037994384765625,
        -0.014190673828125,
        0.003112792968750,
        0.005981445312500,
        -0.003448486328125,
        -0.017059326171875,
        -0.026794433593750,
        -0.031219482421875,
        -0.035644531250000,
        -0.045928955078125,
        -0.062194824218750,
        -0.077880859375000,
        -0.085784912109375,
        -0.083190917968750,
        -0.073242187500000,
        -0.062225341796875,
        -0.056030273437500,
        -0.055114746093750,
        -0.054718017578125,
        -0.047454833984375,
        -0.030059814453125,
        -0.007690429687500,
        0.011199951171875,
        0.021148681640625,
        0.023956298828125,
        0.026031494140625,
        0.029815673828125,
        0.031127929687500,
        0.023651123046875,
        0.006866455078125,
        -0.013916015625000,
        -0.031677246093750,
        -0.043731689453125,
        -0.053039550781250,
        -0.064941406250000,
        -0.083526611328125,
        -0.107025146484375,
        -0.130859375000000,
        -0.149841308593750,
        -0.160369873046875,
        -0.161804199218750,
        -0.153320312500000,
        -0.137268066406250,
        -0.117645263671875,
        -0.100616455078125,
        -0.088104248046875,
        -0.079559326171875,
        -0.072814941406250,
        -0.067657470703125,
        -0.065673828125000,
        -0.069061279296875,
        -0.075744628906250,
        -0.082611083984375,
        -0.085754394531250,
        -0.082122802734375,
        -0.070861816406250,
        -0.053619384765625,
        -0.036041259765625,
        -0.024322509765625,
        -0.024139404296875,
        -0.034057617187500,
        -0.049530029296875,
        -0.064422607421875,
        -0.076171875000000,
        -0.085632324218750,
        -0.095733642578125,
        -0.107452392578125,
        -0.116699218750000,
        -0.116546630859375,
        -0.103057861328125,
        -0.079803466796875,
        -0.054290771484375,
        -0.032928466796875,
        -0.014465332031250,
        0.002258300781250,
        0.018157958984375,
        0.027832031250000,
        0.028594970703125,
        0.020385742187500,
        0.009155273437500,
        0.000885009765625,
        -0.002807617187500,
        -0.005249023437500,
        -0.012390136718750,
        -0.024902343750000,
        -0.039001464843750,
        -0.045074462890625,
        -0.037078857421875,
        -0.015411376953125,
        0.011932373046875,
        0.036773681640625,
        0.054718017578125,
        0.065887451171875,
        0.072570800781250,
        0.078857421875000,
        0.087554931640625,
        0.098175048828125,
        0.105285644531250,
        0.102020263671875,
        0.088104248046875,
        0.070922851562500,
        0.059173583984375,
        0.055908203125000,
        0.053588867187500,
        0.044342041015625,
        0.027343750000000,
        0.012756347656250,
        0.009643554687500,
        0.019165039062500,
        0.035675048828125,
        0.053741455078125,
        0.070037841796875,
        0.083374023437500,
        0.092193603515625,
        0.098571777343750,
        0.106323242187500,
        0.115844726562500,
        0.121673583984375,
        0.116760253906250,
        0.101959228515625,
        0.084655761718750,
        0.072235107421875,
        0.064544677734375,
        0.055053710937500,
        0.042510986328125,
        0.033386230468750,
        0.033996582031250,
        0.043304443359375,
        0.055145263671875,
        0.063873291015625,
        0.065948486328125,
        0.061462402343750,
        0.052001953125000,
        0.040802001953125,
        0.032531738281250,
        0.028533935546875,
        0.029418945312500,
        0.032775878906250,
        0.037811279296875,
        0.043243408203125,
        0.048187255859375,
        0.052825927734375,
        0.055969238281250,
        0.057006835937500,
        0.054870605468750,
        0.048370361328125,
        0.038238525390625,
        0.026763916015625,
        0.015502929687500,
        0.004211425781250,
        -0.008911132812500,
        -0.022888183593750,
        -0.035339355468750,
        -0.044647216796875,
        -0.050079345703125,
        -0.052246093750000,
        -0.050231933593750,
        -0.044982910156250,
        -0.038452148437500,
        -0.032165527343750,
        -0.026245117187500,
        -0.019836425781250,
        -0.012664794921875,
        -0.004760742187500,
        0.003356933593750,
        0.011810302734375,
        0.021331787109375,
        0.028564453125000,
        0.030151367187500,
        0.024810791015625,
        0.017517089843750,
        0.011932373046875,
        0.008575439453125,
        0.004333496093750,
        -0.001953125000000,
        -0.008239746093750,
        -0.013183593750000,
        -0.017089843750000,
        -0.022888183593750,
        -0.029541015625000,
        -0.034912109375000,
        -0.036499023437500,
        -0.034515380859375,
        -0.030914306640625,
        -0.027008056640625,
        -0.024719238281250,
        -0.026977539062500,
        -0.036376953125000,
        -0.050994873046875,
        -0.064208984375000,
        -0.069458007812500,
        -0.066680908203125,
        -0.061950683593750,
        -0.060821533203125,
        -0.065185546875000,
        -0.070892333984375,
        -0.072753906250000,
        -0.068237304687500,
        -0.058471679687500,
        -0.048034667968750,
        -0.038635253906250,
        -0.030212402343750,
        -0.021331787109375,
        -0.010772705078125,
        0.000061035156250,
        0.010711669921875,
        0.018249511718750,
        0.023315429687500,
        0.025573730468750,
        0.027160644531250,
        0.028839111328125,
        0.030578613281250,
        0.031188964843750,
        0.027252197265625,
        0.018798828125000,
        0.007324218750000,
        -0.002868652343750,
        -0.011199951171875,
        -0.018737792968750,
        -0.026580810546875,
        -0.035705566406250,
        -0.045074462890625,
        -0.053955078125000,
        -0.061065673828125,
        -0.067382812500000,
        -0.074279785156250,
        -0.082519531250000,
        -0.090332031250000,
        -0.094146728515625,
        -0.092895507812500,
        -0.088012695312500,
        -0.083068847656250,
        -0.080108642578125,
        -0.078521728515625,
        -0.075042724609375,
        -0.068634033203125,
        -0.059509277343750,
        -0.048217773437500,
        -0.037231445312500,
        -0.028961181640625,
        -0.026763916015625,
        -0.028808593750000,
        -0.031860351562500,
        -0.033050537109375,
        -0.031799316406250,
        -0.031402587890625,
        -0.033264160156250,
        -0.038085937500000,
        -0.043487548828125,
        -0.046020507812500,
        -0.043487548828125,
        -0.036071777343750,
        -0.026947021484375,
        -0.018127441406250,
        -0.010345458984375,
        -0.002319335937500,
        0.006439208984375,
        0.014160156250000,
        0.018768310546875,
        0.020111083984375,
        0.019531250000000,
        0.019378662109375,
        0.020385742187500,
        0.021606445312500,
        0.022125244140625,
        0.022033691406250,
        0.022460937500000,
        0.024505615234375,
        0.028839111328125,
        0.033966064453125,
        0.038696289062500,
        0.042816162109375,
        0.048736572265625,
        0.056976318359375,
        0.067687988281250,
        0.077453613281250,
        0.085205078125000,
        0.089843750000000,
        0.093566894531250,
        0.096893310546875,
        0.098297119140625,
        0.095123291015625,
        0.086578369140625,
        0.075775146484375,
        0.066040039062500,
        0.058990478515625,
        0.054290771484375,
        0.051849365234375,
        0.051818847656250,
        0.053924560546875,
        0.055969238281250,
        0.057312011718750,
        0.057769775390625,
        0.059265136718750,
        0.060668945312500,
        0.060638427734375,
        0.058532714843750,
        0.056854248046875,
        0.056793212890625,
        0.058166503906250,
        0.059875488281250,
        0.061676025390625,
        0.064056396484375,
        0.065734863281250,
        0.067169189453125,
        0.068389892578125,
        0.071563720703125,
        0.076416015625000,
        0.079528808593750,
        0.079040527343750,
        0.073883056640625,
        0.067657470703125,
        0.061431884765625,
        0.056243896484375,
        0.050506591796875,
        0.044952392578125,
        0.038208007812500,
        0.028594970703125,
        0.015319824218750,
        -0.000244140625000,
        -0.015502929687500,
        -0.028991699218750,
        -0.039367675781250,
        -0.047668457031250,
        -0.053833007812500,
        -0.057983398437500,
        -0.060638427734375,
        -0.063659667968750,
        -0.068267822265625,
        -0.073364257812500,
        -0.075195312500000,
        -0.072357177734375,
        -0.066436767578125,
        -0.061737060546875,
        -0.060699462890625,
        -0.063995361328125,
        -0.067810058593750,
        -0.069488525390625,
        -0.067993164062500,
        -0.065185546875000,
        -0.062744140625000,
        -0.061859130859375,
        -0.061492919921875,
        -0.060333251953125,
        -0.056365966796875,
        -0.050018310546875,
        -0.042785644531250,
        -0.037353515625000,
        -0.034545898437500,
        -0.032623291015625,
        -0.030303955078125,
        -0.026885986328125,
        -0.024261474609375,
        -0.025085449218750,
        -0.030029296875000,
        -0.038848876953125,
        -0.046661376953125,
        -0.051574707031250,
        -0.051422119140625,
        -0.049163818359375,
        -0.045349121093750,
        -0.041839599609375,
        -0.038513183593750,
        -0.034759521484375,
        -0.030639648437500,
        -0.026702880859375,
        -0.023559570312500,
        -0.020355224609375,
        -0.016540527343750,
        -0.012084960937500,
        -0.008605957031250,
        -0.005493164062500,
        -0.002655029296875,
        0.000061035156250,
        0.002288818359375,
        0.004180908203125,
        0.005187988281250,
        0.005462646484375,
        0.004852294921875,
        0.003936767578125,
        0.002075195312500,
        -0.000671386718750,
        -0.003631591796875,
        -0.005584716796875,
        -0.005950927734375,
        -0.005859375000000,
        -0.006347656250000,
        -0.009552001953125,
        -0.014526367187500,
        -0.019470214843750,
        -0.021667480468750,
        -0.021789550781250,
        -0.020599365234375,
        -0.019348144531250,
        -0.017547607421875,
        -0.015045166015625,
        -0.011657714843750,
        -0.007141113281250,
        -0.002075195312500,
        0.002655029296875,
        0.006011962890625,
        0.009613037109375,
        0.014251708984375,
        0.020019531250000,
        0.024139404296875,
        0.024322509765625,
        0.020050048828125,
        0.013519287109375,
        0.006134033203125,
        -0.001464843750000,
        -0.008666992187500,
        -0.015228271484375,
        -0.020080566406250,
        -0.023315429687500,
        -0.024871826171875,
        -0.026062011718750,
        -0.026702880859375,
        -0.025390625000000,
        -0.021484375000000,
        -0.014160156250000,
        -0.005676269531250,
        0.001525878906250,
        0.003906250000000,
        0.001007080078125,
        -0.005645751953125,
        -0.013153076171875,
        -0.019378662109375,
        -0.023254394531250,
        -0.024841308593750,
        -0.025756835937500,
        -0.025848388671875,
        -0.024841308593750,
        -0.020477294921875,
        -0.013824462890625,
        -0.006042480468750,
        0.000152587890625,
        0.004699707031250,
        0.008178710937500,
        0.012268066406250,
        0.018920898437500,
        0.027679443359375,
        0.036956787109375,
        0.043701171875000,
        0.046722412109375,
        0.047729492187500,
        0.049865722656250,
        0.053985595703125,
        0.058532714843750,
        0.060485839843750,
        0.059204101562500,
        0.055755615234375,
        0.052886962890625,
        0.051666259765625,
        0.051574707031250,
        0.051147460937500,
        0.049652099609375,
        0.047332763671875,
        0.045684814453125,
        0.045623779296875,
        0.047241210937500,
        0.048278808593750,
        0.049133300781250,
        0.049743652343750,
        0.051116943359375,
        0.052642822265625,
        0.053863525390625,
        0.055389404296875,
        0.057189941406250,
        0.059387207031250,
        0.060974121093750,
        0.062622070312500,
        0.064483642578125,
        0.067565917968750,
        0.070037841796875,
        0.071685791015625,
        0.071716308593750,
        0.071014404296875,
        0.069702148437500,
        0.067199707031250,
        0.062438964843750,
        0.054748535156250,
        0.044403076171875,
        0.033660888671875,
        0.023254394531250,
        0.016326904296875,
        0.012756347656250,
        0.013122558593750,
        0.014404296875000,
        0.015228271484375,
        0.014526367187500,
        0.013763427734375,
        0.012786865234375,
        0.011718750000000,
        0.008911132812500,
        0.003204345703125,
        -0.004669189453125,
        -0.013305664062500,
        -0.020660400390625,
        -0.026824951171875,
        -0.032958984375000,
        -0.039459228515625,
        -0.047790527343750,
        -0.056884765625000,
        -0.066070556640625,
        -0.071838378906250,
        -0.073516845703125,
        -0.071197509765625,
        -0.067138671875000,
        -0.063934326171875,
        -0.062072753906250,
        -0.061614990234375,
        -0.061462402343750,
        -0.060485839843750,
        -0.058898925781250,
        -0.056396484375000,
        -0.053710937500000,
        -0.052185058593750,
        -0.053100585937500,
        -0.056732177734375,
        -0.061523437500000,
        -0.065734863281250,
        -0.069641113281250,
        -0.073608398437500,
        -0.077484130859375,
        -0.080505371093750,
        -0.081024169921875,
        -0.078643798828125,
        -0.074005126953125,
        -0.069335937500000,
        -0.066650390625000,
        -0.065612792968750,
        -0.064666748046875,
        -0.061187744140625,
        -0.054656982421875,
        -0.045867919921875,
        -0.036804199218750,
        -0.028808593750000,
        -0.022796630859375,
        -0.018920898437500,
        -0.016754150390625,
        -0.014801025390625,
        -0.011596679687500,
        -0.005218505859375,
        0.001892089843750,
        0.008209228515625,
        0.011962890625000,
        0.014617919921875,
        0.016937255859375,
        0.019348144531250,
        0.020324707031250,
        0.018188476562500,
        0.013031005859375,
        0.005493164062500,
        -0.001251220703125,
        -0.005462646484375,
        -0.006134033203125,
        -0.005096435546875,
        -0.003082275390625,
        -0.001617431640625,
        -0.000610351562500,
        0.000823974609375,
        0.004394531250000,
        0.008972167968750,
        0.013580322265625,
        0.016693115234375,
        0.017883300781250,
        0.016662597656250,
        0.014343261718750,
        0.011505126953125,
        0.009521484375000,
        0.009155273437500,
        0.009277343750000,
        0.009735107421875,
        0.009918212890625,
        0.011138916015625,
        0.014068603515625,
        0.018218994140625,
        0.021514892578125,
        0.023437500000000,
        0.024932861328125,
        0.027740478515625,
        0.031097412109375,
        0.034729003906250,
        0.037322998046875,
        0.039367675781250,
        0.040283203125000,
        0.040405273437500,
        0.038757324218750,
        0.036041259765625,
        0.031768798828125,
        0.025787353515625,
        0.018157958984375,
        0.011016845703125,
        0.005493164062500,
        0.001007080078125,
        -0.003509521484375,
        -0.009368896484375,
        -0.015991210937500,
        -0.020965576171875,
        -0.022644042968750,
        -0.020843505859375,
        -0.016174316406250,
        -0.010406494140625,
        -0.004913330078125,
        -0.000946044921875,
        0.001190185546875,
        0.002136230468750,
        0.002746582031250,
        0.003143310546875,
        0.003479003906250,
        0.004486083984375,
        0.005584716796875,
        0.006988525390625,
        0.007965087890625,
        0.009033203125000,
        0.009368896484375,
        0.010559082031250,
        0.011444091796875,
        0.012908935546875,
        0.015136718750000,
        0.019042968750000,
        0.023803710937500,
        0.028137207031250,
        0.029693603515625,
        0.028198242187500,
        0.024963378906250,
        0.023101806640625,
        0.023590087890625,
        0.026702880859375,
        0.030700683593750,
        0.033843994140625,
        0.035705566406250,
        0.035766601562500,
        0.034606933593750,
        0.032287597656250,
        0.029296875000000,
        0.026855468750000,
        0.025756835937500,
        0.026947021484375,
        0.028991699218750,
        0.031311035156250,
        0.032958984375000,
        0.033630371093750,
        0.033569335937500,
        0.032623291015625,
        0.031005859375000,
        0.028869628906250,
        0.028015136718750,
        0.028533935546875,
        0.030670166015625,
        0.032653808593750,
        0.033325195312500,
        0.031707763671875,
        0.028289794921875,
        0.024353027343750,
        0.020599365234375,
        0.017486572265625,
        0.014526367187500,
        0.010192871093750,
        0.004882812500000,
        -0.001251220703125,
        -0.007263183593750,
        -0.012817382812500,
        -0.017669677734375,
        -0.021697998046875,
        -0.025909423828125,
        -0.028808593750000,
        -0.030883789062500,
        -0.031005859375000,
        -0.029968261718750,
        -0.028228759765625,
        -0.026947021484375,
        -0.026062011718750,
        -0.025573730468750,
        -0.024963378906250,
        -0.023132324218750,
        -0.021484375000000,
        -0.019653320312500,
        -0.019195556640625,
        -0.020080566406250,
        -0.022735595703125,
        -0.026367187500000,
        -0.030090332031250,
        -0.034088134765625,
        -0.038391113281250,
        -0.043670654296875,
        -0.049285888671875,
        -0.053161621093750,
        -0.053894042968750,
        -0.052154541015625,
        -0.049743652343750,
        -0.048645019531250,
        -0.049652099609375,
        -0.051177978515625,
        -0.051574707031250,
        -0.050506591796875,
        -0.048156738281250,
        -0.045776367187500,
        -0.044891357421875,
        -0.046600341796875,
        -0.049865722656250,
        -0.053344726562500,
        -0.054687500000000,
        -0.054382324218750,
        -0.052490234375000,
        -0.050231933593750,
        -0.047790527343750,
        -0.045806884765625,
        -0.043792724609375,
        -0.042358398437500,
        -0.040313720703125,
        -0.037963867187500,
        -0.034912109375000,
        -0.031585693359375,
        -0.028228759765625,
        -0.024261474609375,
        -0.020080566406250,
        -0.014801025390625,
        -0.009979248046875,
        -0.006134033203125,
        -0.004058837890625,
        -0.003326416015625,
        -0.002593994140625,
        -0.000793457031250,
        0.002136230468750,
        0.005462646484375,
        0.007720947265625,
        0.008697509765625,
        0.008270263671875,
        0.007446289062500,
        0.006744384765625,
        0.007110595703125,
        0.008728027343750,
        0.010955810546875,
        0.013366699218750,
        0.015625000000000,
        0.018005371093750,
        0.019866943359375,
        0.021728515625000,
        0.023742675781250,
        0.026153564453125,
        0.028564453125000,
        0.030426025390625,
        0.031555175781250,
        0.032714843750000,
        0.034698486328125,
        0.037567138671875,
        0.040344238281250,
        0.043212890625000,
        0.045288085937500,
        0.046569824218750,
        0.046264648437500,
        0.044738769531250,
        0.042114257812500,
        0.039794921875000,
        0.038116455078125,
        0.037139892578125,
        0.035797119140625,
        0.034545898437500,
        0.033660888671875,
        0.034545898437500,
        0.038024902343750,
        0.043151855468750,
        0.047912597656250,
        0.049774169921875,
        0.047882080078125,
        0.043273925781250,
        0.037872314453125,
        0.033477783203125,
        0.030761718750000,
        0.028625488281250,
        0.025543212890625,
        0.021301269531250,
        0.016418457031250,
        0.012634277343750,
        0.009765625000000,
        0.008026123046875,
        0.005828857421875,
        0.003173828125000,
        0.000244140625000,
        -0.002166748046875,
        -0.002471923828125,
        -0.000427246093750,
        0.004241943359375,
        0.008789062500000,
        0.012329101562500,
        0.014007568359375,
        0.014831542968750,
        0.015594482421875,
        0.017059326171875,
        0.017883300781250,
        0.018554687500000,
        0.017883300781250,
        0.016540527343750,
        0.014129638671875,
        0.011505126953125,
        0.009094238281250,
        0.007110595703125,
        0.004943847656250,
        0.003112792968750,
        0.001464843750000,
        -0.000030517578125,
        -0.001068115234375,
        -0.001861572265625,
        -0.002380371093750,
        -0.003387451171875,
        -0.005096435546875,
        -0.007385253906250,
        -0.009277343750000,
        -0.009704589843750,
        -0.009216308593750,
        -0.008361816406250,
        -0.008911132812500,
        -0.009796142578125,
        -0.011444091796875,
        -0.012329101562500,
        -0.012390136718750,
        -0.011169433593750,
        -0.009521484375000,
        -0.008392333984375,
        -0.008789062500000,
        -0.010803222656250,
        -0.013122558593750,
        -0.015380859375000,
        -0.016540527343750,
        -0.017639160156250,
        -0.018005371093750,
        -0.018249511718750,
        -0.017822265625000,
        -0.016815185546875,
        -0.014770507812500,
        -0.012512207031250,
        -0.010498046875000,
        -0.009674072265625,
        -0.009979248046875,
        -0.010253906250000,
        -0.010070800781250,
        -0.009033203125000,
        -0.008117675781250,
        -0.008850097656250,
        -0.010650634765625,
        -0.013153076171875,
        -0.014770507812500,
        -0.015258789062500,
        -0.014801025390625,
        -0.014190673828125,
        -0.014251708984375,
        -0.015106201171875,
        -0.016632080078125,
        -0.018432617187500,
        -0.019592285156250,
        -0.020111083984375,
        -0.020141601562500,
        -0.020477294921875,
        -0.020660400390625,
        -0.019866943359375,
        -0.017913818359375,
        -0.014526367187500,
        -0.011840820312500,
        -0.010711669921875,
        -0.011840820312500,
        -0.013977050781250,
        -0.016143798828125,
        -0.017669677734375,
        -0.018920898437500,
        -0.020812988281250,
        -0.023803710937500,
        -0.026580810546875,
        -0.029083251953125,
        -0.029937744140625,
        -0.030273437500000,
        -0.030029296875000,
        -0.030212402343750,
        -0.030456542968750,
        -0.030059814453125,
        -0.028961181640625,
        -0.026153564453125,
        -0.023223876953125,
        -0.019958496093750,
        -0.017822265625000,
        -0.016387939453125,
        -0.015625000000000,
        -0.015014648437500,
        -0.014709472656250,
        -0.013885498046875,
        -0.012786865234375,
        -0.011291503906250,
        -0.010101318359375,
        -0.009094238281250,
        -0.008514404296875,
        -0.007141113281250,
        -0.005737304687500,
        -0.003570556640625,
        -0.002685546875000,
        -0.001861572265625,
        -0.001251220703125,
        -0.000091552734375,
        0.001556396484375,
        0.003326416015625,
        0.004669189453125,
        0.005645751953125,
        0.006256103515625,
        0.006652832031250,
        0.006896972656250,
        0.007873535156250,
        0.009429931640625,
        0.012329101562500,
        0.015075683593750,
        0.018005371093750,
        0.019897460937500,
        0.021636962890625,
        0.022613525390625,
        0.023864746093750,
        0.024749755859375,
        0.025115966796875,
        0.024871826171875,
        0.023834228515625,
        0.022430419921875,
        0.021270751953125,
        0.020080566406250,
        0.019531250000000,
        0.019470214843750,
        0.020324707031250,
        0.022247314453125,
        0.024749755859375,
        0.027862548828125,
        0.030426025390625,
        0.032287597656250,
        0.032653808593750,
        0.032226562500000,
