/* This file was automatically generated */
#ifndef IMPULSE_DATA_H
#define IMPULSE_DATA_H
const int PC_KERNEL_SIZE = 2048;
const int PC_KERNEL_NUMBER = 3;
const double pc_kernels[][2048] = {
    {
        /* 01-glasgow.wav */
        0.001098632812500,
        0.000823974609375,
        0.001922607421875,
        0.004516601562500,
        0.003906250000000,
        0.000518798828125,
        -0.009216308593750,
        -0.018493652343750,
        -0.047332763671875,
        -0.077636718750000,
        -0.126159667968750,
        -0.141601562500000,
        -0.160949707031250,
        -0.144958496093750,
        -0.141448974609375,
        -0.135650634765625,
        -0.182769775390625,
        -0.272399902343750,
        -0.351043701171875,
        -0.449615478515625,
        -0.437164306640625,
        -0.425567626953125,
        -0.305236816406250,
        -0.282684326171875,
        -0.205169677734375,
        -0.179748535156250,
        -0.131896972656250,
        -0.016693115234375,
        0.083343505859375,
        0.233123779296875,
        0.310638427734375,
        0.396240234375000,
        0.438507080078125,
        0.519073486328125,
        0.617370605468750,
        0.726379394531250,
        0.839935302734375,
        0.921417236328125,
        0.946655273437500,
        0.912322998046875,
        0.857543945312500,
        0.774078369140625,
        0.695739746093750,
        0.657867431640625,
        0.607116699218750,
        0.547912597656250,
        0.453002929687500,
        0.334320068359375,
        0.208068847656250,
        0.095306396484375,
        0.027221679687500,
        -0.010345458984375,
        -0.034088134765625,
        -0.075561523437500,
        -0.127929687500000,
        -0.172424316406250,
        -0.210601806640625,
        -0.257598876953125,
        -0.284667968750000,
        -0.325775146484375,
        -0.370849609375000,
        -0.417755126953125,
        -0.450592041015625,
        -0.468322753906250,
        -0.480590820312500,
        -0.486816406250000,
        -0.497680664062500,
        -0.526123046875000,
        -0.554595947265625,
        -0.578643798828125,
        -0.602569580078125,
        -0.617736816406250,
        -0.647583007812500,
        -0.678588867187500,
        -0.719909667968750,
        -0.749664306640625,
        -0.758239746093750,
        -0.727966308593750,
        -0.655487060546875,
        -0.582000732421875,
        -0.526916503906250,
        -0.508880615234375,
        -0.515655517578125,
        -0.516082763671875,
        -0.488433837890625,
        -0.431365966796875,
        -0.349121093750000,
        -0.262054443359375,
        -0.183319091796875,
        -0.124969482421875,
        -0.071380615234375,
        -0.017852783203125,
        0.044799804687500,
        0.122894287109375,
        0.200836181640625,
        0.258819580078125,
        0.302185058593750,
        0.344299316406250,
        0.384521484375000,
        0.443969726562500,
        0.508148193359375,
        0.585418701171875,
        0.647460937500000,
        0.686767578125000,
        0.700225830078125,
        0.688903808593750,
        0.667510986328125,
        0.641479492187500,
        0.617706298828125,
        0.593322753906250,
        0.553283691406250,
        0.489471435546875,
        0.407806396484375,
        0.303741455078125,
        0.206542968750000,
        0.117126464843750,
        0.054962158203125,
        0.013519287109375,
        -0.015411376953125,
        -0.028869628906250,
        -0.030853271484375,
        -0.012084960937500,
        0.010467529296875,
        0.041473388671875,
        0.063385009765625,
        0.076416015625000,
        0.082458496093750,
        0.104736328125000,
        0.147735595703125,
        0.212432861328125,
        0.285400390625000,
        0.344573974609375,
        0.385559082031250,
        0.390197753906250,
        0.375091552734375,
        0.344390869140625,
        0.309234619140625,
        0.275268554687500,
        0.249114990234375,
        0.228332519531250,
        0.203125000000000,
        0.164031982421875,
        0.112365722656250,
        0.050048828125000,
        -0.015350341796875,
        -0.071319580078125,
        -0.119628906250000,
        -0.153961181640625,
        -0.188323974609375,
        -0.222137451171875,
        -0.253753662109375,
        -0.276702880859375,
        -0.293884277343750,
        -0.301208496093750,
        -0.303192138671875,
        -0.305023193359375,
        -0.317077636718750,
        -0.340911865234375,
        -0.368530273437500,
        -0.401611328125000,
        -0.428558349609375,
        -0.453277587890625,
        -0.467742919921875,
        -0.478637695312500,
        -0.485778808593750,
        -0.487976074218750,
        -0.478546142578125,
        -0.459381103515625,
        -0.434844970703125,
        -0.404296875000000,
        -0.366333007812500,
        -0.324279785156250,
        -0.280517578125000,
        -0.230743408203125,
        -0.183593750000000,
        -0.136047363281250,
        -0.096710205078125,
        -0.059509277343750,
        -0.026062011718750,
        0.003814697265625,
        0.024566650390625,
        0.040740966796875,
        0.054840087890625,
        0.070831298828125,
        0.096282958984375,
        0.128265380859375,
        0.169372558593750,
        0.200927734375000,
        0.229797363281250,
        0.252136230468750,
        0.277099609375000,
        0.301239013671875,
        0.326721191406250,
        0.348937988281250,
        0.362274169921875,
        0.369781494140625,
        0.370513916015625,
        0.372955322265625,
        0.370666503906250,
        0.365234375000000,
        0.351501464843750,
        0.335540771484375,
        0.312255859375000,
        0.288696289062500,
        0.265350341796875,
        0.244567871093750,
        0.223144531250000,
        0.199493408203125,
        0.180206298828125,
        0.160980224609375,
        0.148834228515625,
        0.138183593750000,
        0.135986328125000,
        0.127136230468750,
        0.113342285156250,
        0.088317871093750,
        0.055816650390625,
        0.010986328125000,
        -0.042022705078125,
        -0.097076416015625,
        -0.143280029296875,
        -0.179077148437500,
        -0.206573486328125,
        -0.227630615234375,
        -0.254913330078125,
        -0.289123535156250,
        -0.331024169921875,
        -0.367797851562500,
        -0.398254394531250,
        -0.419769287109375,
        -0.438049316406250,
        -0.450012207031250,
        -0.458221435546875,
        -0.455291748046875,
        -0.440917968750000,
        -0.414794921875000,
        -0.383270263671875,
        -0.352050781250000,
        -0.327026367187500,
        -0.307556152343750,
        -0.281250000000000,
        -0.258819580078125,
        -0.226531982421875,
        -0.198852539062500,
        -0.163085937500000,
        -0.133270263671875,
        -0.093933105468750,
        -0.041625976562500,
        0.004791259765625,
        0.057952880859375,
        0.094726562500000,
        0.125488281250000,
        0.142730712890625,
        0.161132812500000,
        0.186096191406250,
        0.222534179687500,
        0.267791748046875,
        0.305480957031250,
        0.336944580078125,
        0.350830078125000,
        0.349639892578125,
        0.331329345703125,
        0.310760498046875,
        0.284240722656250,
        0.255523681640625,
        0.230499267578125,
        0.205261230468750,
        0.181884765625000,
        0.158843994140625,
        0.137603759765625,
        0.120941162109375,
        0.106933593750000,
        0.097534179687500,
        0.095703125000000,
        0.098724365234375,
        0.110198974609375,
        0.122741699218750,
        0.142608642578125,
        0.164978027343750,
        0.184906005859375,
        0.203155517578125,
        0.217742919921875,
        0.227050781250000,
        0.229919433593750,
        0.231536865234375,
        0.229156494140625,
        0.219818115234375,
        0.197906494140625,
        0.167022705078125,
        0.126434326171875,
        0.085968017578125,
        0.046295166015625,
        0.011810302734375,
        -0.019195556640625,
        -0.052459716796875,
        -0.087554931640625,
        -0.125549316406250,
        -0.159118652343750,
        -0.189300537109375,
        -0.213256835937500,
        -0.234436035156250,
        -0.254913330078125,
        -0.281921386718750,
        -0.306701660156250,
        -0.329803466796875,
        -0.342590332031250,
        -0.342803955078125,
        -0.332855224609375,
        -0.314727783203125,
        -0.298004150390625,
        -0.283233642578125,
        -0.275299072265625,
        -0.267028808593750,
        -0.259216308593750,
        -0.246734619140625,
        -0.230010986328125,
        -0.205444335937500,
        -0.179382324218750,
        -0.150848388671875,
        -0.116851806640625,
        -0.079620361328125,
        -0.038787841796875,
        0.000000000000000,
        0.039215087890625,
        0.074066162109375,
        0.104217529296875,
        0.128356933593750,
        0.150085449218750,
        0.168243408203125,
        0.185302734375000,
        0.199462890625000,
        0.214385986328125,
        0.227355957031250,
        0.234436035156250,
        0.238616943359375,
        0.235809326171875,
        0.232788085937500,
        0.225738525390625,
        0.220642089843750,
        0.216583251953125,
        0.215332031250000,
        0.215026855468750,
        0.214965820312500,
        0.213500976562500,
        0.204376220703125,
        0.188507080078125,
        0.164367675781250,
        0.137084960937500,
        0.104125976562500,
        0.074432373046875,
        0.044433593750000,
        0.017272949218750,
        -0.012268066406250,
        -0.043273925781250,
        -0.074951171875000,
        -0.107666015625000,
        -0.137939453125000,
        -0.164276123046875,
        -0.184814453125000,
        -0.201324462890625,
        -0.213531494140625,
        -0.223327636718750,
        -0.227630615234375,
        -0.230133056640625,
        -0.225494384765625,
        -0.216888427734375,
        -0.199401855468750,
        -0.178222656250000,
        -0.153900146484375,
        -0.129791259765625,
        -0.109375000000000,
        -0.093994140625000,
        -0.082855224609375,
        -0.070037841796875,
        -0.055786132812500,
        -0.036865234375000,
        -0.017578125000000,
        0.001342773437500,
        0.013183593750000,
        0.017364501953125,
        0.014312744140625,
        0.005737304687500,
        -0.004791259765625,
        -0.018066406250000,
        -0.029052734375000,
        -0.039062500000000,
        -0.045562744140625,
        -0.053009033203125,
        -0.057495117187500,
        -0.061737060546875,
        -0.063781738281250,
        -0.065704345703125,
        -0.063293457031250,
        -0.058410644531250,
        -0.051391601562500,
        -0.042999267578125,
        -0.036102294921875,
        -0.029785156250000,
        -0.028411865234375,
        -0.027130126953125,
        -0.027709960937500,
        -0.025299072265625,
        -0.022064208984375,
        -0.013641357421875,
        -0.000030517578125,
        0.016754150390625,
        0.039367675781250,
        0.062042236328125,
        0.089996337890625,
        0.118621826171875,
        0.148071289062500,
        0.176544189453125,
        0.203918457031250,
        0.226074218750000,
        0.243103027343750,
        0.253112792968750,
        0.255828857421875,
        0.252960205078125,
        0.243896484375000,
        0.231750488281250,
        0.215393066406250,
        0.196014404296875,
        0.171630859375000,
        0.146270751953125,
        0.118133544921875,
        0.091125488281250,
        0.064239501953125,
        0.040618896484375,
        0.017272949218750,
        -0.005767822265625,
        -0.027130126953125,
        -0.046051025390625,
        -0.059570312500000,
        -0.069427490234375,
        -0.073699951171875,
        -0.074920654296875,
        -0.073394775390625,
        -0.072082519531250,
        -0.071014404296875,
        -0.071166992187500,
        -0.070373535156250,
        -0.069549560546875,
        -0.065429687500000,
        -0.059082031250000,
        -0.052307128906250,
        -0.045806884765625,
        -0.041351318359375,
        -0.037078857421875,
        -0.034912109375000,
        -0.030914306640625,
        -0.027252197265625,
        -0.023193359375000,
        -0.020874023437500,
        -0.018768310546875,
        -0.017364501953125,
        -0.015380859375000,
        -0.013336181640625,
        -0.010437011718750,
        -0.005920410156250,
        0.000579833984375,
        0.007965087890625,
        0.016021728515625,
        0.024230957031250,
        0.028472900390625,
        0.030029296875000,
        0.026092529296875,
        0.019683837890625,
        0.009124755859375,
        -0.003692626953125,
        -0.017547607421875,
        -0.031188964843750,
        -0.043243408203125,
        -0.054199218750000,
        -0.061859130859375,
        -0.066864013671875,
        -0.068695068359375,
        -0.070373535156250,
        -0.070800781250000,
        -0.072753906250000,
        -0.076904296875000,
        -0.081909179687500,
        -0.085540771484375,
        -0.087036132812500,
        -0.087493896484375,
        -0.087371826171875,
        -0.088287353515625,
        -0.090728759765625,
        -0.094268798828125,
        -0.096832275390625,
        -0.097686767578125,
        -0.095947265625000,
        -0.093994140625000,
        -0.089843750000000,
        -0.084075927734375,
        -0.075286865234375,
        -0.063629150390625,
        -0.046936035156250,
        -0.025878906250000,
        -0.002105712890625,
        0.024810791015625,
        0.050689697265625,
        0.078063964843750,
        0.103790283203125,
        0.130035400390625,
        0.154327392578125,
        0.176422119140625,
        0.192596435546875,
        0.202239990234375,
        0.205108642578125,
        0.201293945312500,
        0.193115234375000,
        0.179748535156250,
        0.164825439453125,
        0.145599365234375,
        0.123565673828125,
        0.097320556640625,
        0.070678710937500,
        0.041595458984375,
        0.013854980468750,
        -0.014068603515625,
        -0.038391113281250,
        -0.060089111328125,
        -0.078125000000000,
        -0.091888427734375,
        -0.101898193359375,
        -0.106933593750000,
        -0.109558105468750,
        -0.106719970703125,
        -0.102752685546875,
        -0.096466064453125,
        -0.089843750000000,
        -0.081848144531250,
        -0.074127197265625,
        -0.067260742187500,
        -0.060760498046875,
        -0.054962158203125,
        -0.048950195312500,
        -0.044067382812500,
        -0.037750244140625,
        -0.032165527343750,
        -0.026611328125000,
        -0.023834228515625,
        -0.022155761718750,
        -0.019989013671875,
        -0.018646240234375,
        -0.015747070312500,
        -0.012725830078125,
        -0.008087158203125,
        -0.004974365234375,
        -0.001922607421875,
        -0.000701904296875,
        -0.000244140625000,
        -0.000793457031250,
        -0.002380371093750,
        -0.003448486328125,
        -0.004272460937500,
        -0.005828857421875,
        -0.007415771484375,
        -0.009399414062500,
        -0.010559082031250,
        -0.011749267578125,
        -0.011505126953125,
        -0.009796142578125,
        -0.006225585937500,
        -0.001770019531250,
        0.003753662109375,
        0.011138916015625,
        0.018554687500000,
        0.026550292968750,
        0.033111572265625,
        0.041168212890625,
        0.048248291015625,
        0.054107666015625,
        0.060485839843750,
        0.065887451171875,
        0.070159912109375,
        0.072418212890625,
        0.075012207031250,
        0.076385498046875,
        0.077636718750000,
        0.078002929687500,
        0.077697753906250,
        0.076263427734375,
        0.073974609375000,
        0.072113037109375,
        0.070373535156250,
        0.069976806640625,
        0.070281982421875,
        0.072998046875000,
        0.075988769531250,
        0.079132080078125,
        0.079833984375000,
        0.079040527343750,
        0.077453613281250,
        0.073608398437500,
        0.069427490234375,
        0.063140869140625,
        0.055908203125000,
        0.045257568359375,
        0.031890869140625,
        0.015655517578125,
        -0.002105712890625,
        -0.021392822265625,
        -0.039520263671875,
        -0.056823730468750,
        -0.071807861328125,
        -0.087249755859375,
        -0.099639892578125,
        -0.110382080078125,
        -0.118591308593750,
        -0.123535156250000,
        -0.125549316406250,
        -0.124908447265625,
        -0.123718261718750,
        -0.120239257812500,
        -0.115203857421875,
        -0.107513427734375,
        -0.097930908203125,
        -0.087127685546875,
        -0.075988769531250,
        -0.066650390625000,
        -0.058990478515625,
        -0.054321289062500,
        -0.050781250000000,
        -0.048217773437500,
        -0.046142578125000,
        -0.043914794921875,
        -0.040374755859375,
        -0.036621093750000,
        -0.032501220703125,
        -0.028503417968750,
        -0.024658203125000,
        -0.020324707031250,
        -0.016510009765625,
        -0.011383056640625,
        -0.006530761718750,
        -0.000122070312500,
        0.005187988281250,
        0.012115478515625,
        0.017272949218750,
        0.022705078125000,
        0.025878906250000,
        0.028686523437500,
        0.030273437500000,
        0.030395507812500,
        0.029693603515625,
        0.029052734375000,
        0.028472900390625,
        0.026824951171875,
        0.024536132812500,
        0.021118164062500,
        0.017456054687500,
        0.013275146484375,
        0.009429931640625,
        0.006072998046875,
        0.003479003906250,
        0.002441406250000,
        0.002563476562500,
        0.003997802734375,
        0.006195068359375,
        0.009582519531250,
        0.013946533203125,
        0.019561767578125,
        0.026763916015625,
        0.033630371093750,
        0.040191650390625,
        0.046966552734375,
        0.051757812500000,
        0.056610107421875,
        0.059082031250000,
        0.061157226562500,
        0.061462402343750,
        0.060607910156250,
        0.058654785156250,
        0.055969238281250,
        0.051849365234375,
        0.046264648437500,
        0.040130615234375,
        0.033050537109375,
        0.025756835937500,
        0.018280029296875,
        0.010955810546875,
        0.004638671875000,
        -0.002716064453125,
        -0.009796142578125,
        -0.017456054687500,
        -0.025756835937500,
        -0.034973144531250,
        -0.043212890625000,
        -0.050964355468750,
        -0.057128906250000,
        -0.062927246093750,
        -0.067596435546875,
        -0.071624755859375,
        -0.074920654296875,
        -0.077087402343750,
        -0.078521728515625,
        -0.077545166015625,
        -0.075408935546875,
        -0.069946289062500,
        -0.061920166015625,
        -0.051727294921875,
        -0.040130615234375,
        -0.027313232421875,
        -0.014221191406250,
        -0.001770019531250,
        0.009155273437500,
        0.019195556640625,
        0.027709960937500,
        0.035430908203125,
        0.042297363281250,
        0.048156738281250,
        0.053375244140625,
        0.056488037109375,
        0.058105468750000,
        0.056396484375000,
        0.054290771484375,
        0.049621582031250,
        0.043975830078125,
        0.038116455078125,
        0.031646728515625,
        0.026092529296875,
        0.020233154296875,
        0.016326904296875,
        0.013397216796875,
        0.011627197265625,
        0.010162353515625,
        0.009307861328125,
        0.007781982421875,
        0.007110595703125,
        0.005645751953125,
        0.005584716796875,
        0.005218505859375,
        0.005462646484375,
        0.005126953125000,
        0.004455566406250,
        0.002929687500000,
        -0.000030517578125,
        -0.002838134765625,
        -0.005920410156250,
        -0.008850097656250,
        -0.011840820312500,
        -0.013916015625000,
        -0.015197753906250,
        -0.016113281250000,
        -0.015899658203125,
        -0.014770507812500,
        -0.012512207031250,
        -0.010314941406250,
        -0.007751464843750,
        -0.005004882812500,
        -0.002471923828125,
        -0.000396728515625,
        0.001373291015625,
        0.002227783203125,
        0.001800537109375,
        0.000152587890625,
        -0.002777099609375,
        -0.006622314453125,
        -0.011230468750000,
        -0.016632080078125,
        -0.022094726562500,
        -0.027648925781250,
        -0.033721923828125,
        -0.038848876953125,
        -0.043884277343750,
        -0.046844482421875,
        -0.048767089843750,
        -0.048095703125000,
        -0.046081542968750,
        -0.041839599609375,
        -0.035614013671875,
        -0.027648925781250,
        -0.018554687500000,
        -0.008148193359375,
        0.002624511718750,
        0.014312744140625,
        0.026336669921875,
        0.037750244140625,
        0.048583984375000,
        0.058532714843750,
        0.066589355468750,
        0.072723388671875,
        0.077117919921875,
        0.079467773437500,
        0.080322265625000,
        0.079223632812500,
        0.076049804687500,
        0.071197509765625,
        0.064788818359375,
        0.057464599609375,
        0.049377441406250,
        0.041503906250000,
        0.033203125000000,
        0.026306152343750,
        0.018707275390625,
        0.011749267578125,
        0.004547119140625,
        -0.003936767578125,
        -0.011596679687500,
        -0.019866943359375,
        -0.026641845703125,
        -0.034027099609375,
        -0.040374755859375,
        -0.046722412109375,
        -0.051177978515625,
        -0.055206298828125,
        -0.057739257812500,
        -0.059570312500000,
        -0.060241699218750,
        -0.060119628906250,
        -0.059478759765625,
        -0.058532714843750,
        -0.056732177734375,
        -0.054626464843750,
        -0.051666259765625,
        -0.049072265625000,
        -0.046447753906250,
        -0.043518066406250,
        -0.040008544921875,
        -0.037139892578125,
        -0.035217285156250,
        -0.034393310546875,
        -0.033874511718750,
        -0.034088134765625,
        -0.033660888671875,
        -0.033721923828125,
        -0.032287597656250,
        -0.031677246093750,
        -0.029449462890625,
        -0.027740478515625,
        -0.024566650390625,
        -0.021820068359375,
        -0.018707275390625,
        -0.014648437500000,
        -0.010192871093750,
        -0.004638671875000,
        0.000793457031250,
        0.007415771484375,
        0.014068603515625,
        0.020050048828125,
        0.025848388671875,
        0.031707763671875,
        0.037445068359375,
        0.042572021484375,
        0.046905517578125,
        0.049530029296875,
        0.051483154296875,
        0.051605224609375,
        0.051208496093750,
        0.049072265625000,
        0.047027587890625,
        0.043853759765625,
        0.041259765625000,
        0.037536621093750,
        0.034667968750000,
        0.031646728515625,
        0.029815673828125,
        0.027893066406250,
        0.027465820312500,
        0.027465820312500,
        0.027709960937500,
        0.029083251953125,
        0.030487060546875,
        0.031280517578125,
        0.032470703125000,
        0.033447265625000,
        0.034149169921875,
        0.034301757812500,
        0.034179687500000,
        0.033477783203125,
        0.031707763671875,
        0.029113769531250,
        0.026031494140625,
        0.022064208984375,
        0.017944335937500,
        0.013214111328125,
        0.008361816406250,
        0.002899169921875,
        -0.002502441406250,
        -0.008209228515625,
        -0.013031005859375,
        -0.017425537109375,
        -0.021942138671875,
        -0.026062011718750,
        -0.029815673828125,
        -0.032989501953125,
        -0.036102294921875,
        -0.038482666015625,
        -0.041015625000000,
        -0.042633056640625,
        -0.044738769531250,
        -0.045501708984375,
        -0.046478271484375,
        -0.046478271484375,
        -0.046295166015625,
        -0.044738769531250,
        -0.042480468750000,
        -0.040252685546875,
        -0.036407470703125,
        -0.033813476562500,
        -0.029937744140625,
        -0.026519775390625,
        -0.022033691406250,
        -0.017120361328125,
        -0.011627197265625,
        -0.005676269531250,
        -0.000274658203125,
        0.005126953125000,
        0.010284423828125,
        0.014587402343750,
        0.018585205078125,
        0.021820068359375,
        0.023742675781250,
        0.025604248046875,
        0.026458740234375,
        0.026641845703125,
        0.025695800781250,
        0.024291992187500,
        0.022308349609375,
        0.020446777343750,
        0.018493652343750,
        0.016387939453125,
        0.014068603515625,
        0.012207031250000,
        0.010467529296875,
        0.008178710937500,
        0.006744384765625,
        0.005157470703125,
        0.003692626953125,
        0.002044677734375,
        0.000030517578125,
        -0.001403808593750,
        -0.003540039062500,
        -0.004852294921875,
        -0.006713867187500,
        -0.008117675781250,
        -0.009735107421875,
        -0.011138916015625,
        -0.012573242187500,
        -0.013977050781250,
        -0.015655517578125,
        -0.016235351562500,
        -0.017822265625000,
        -0.018737792968750,
        -0.019897460937500,
        -0.020050048828125,
        -0.019775390625000,
        -0.019042968750000,
        -0.017700195312500,
        -0.016479492187500,
        -0.014739990234375,
        -0.013244628906250,
        -0.011291503906250,
        -0.010009765625000,
        -0.007293701171875,
        -0.005615234375000,
        -0.003326416015625,
        -0.001312255859375,
        0.000671386718750,
        0.003417968750000,
        0.005950927734375,
        0.007690429687500,
        0.010131835937500,
        0.011901855468750,
        0.014038085937500,
        0.016296386718750,
        0.017944335937500,
        0.019317626953125,
        0.019989013671875,
        0.021270751953125,
        0.021850585937500,
        0.022583007812500,
        0.022949218750000,
        0.023376464843750,
        0.023132324218750,
        0.022674560546875,
        0.021850585937500,
        0.020416259765625,
        0.019012451171875,
        0.016113281250000,
        0.013397216796875,
        0.009796142578125,
        0.006286621093750,
        0.002838134765625,
        -0.000610351562500,
        -0.004364013671875,
        -0.007415771484375,
        -0.010284423828125,
        -0.012664794921875,
        -0.015533447265625,
        -0.017211914062500,
        -0.019165039062500,
        -0.021026611328125,
        -0.022491455078125,
        -0.023284912109375,
        -0.023986816406250,
        -0.024169921875000,
        -0.024169921875000,
        -0.022644042968750,
        -0.021575927734375,
        -0.019958496093750,
        -0.018402099609375,
        -0.016876220703125,
        -0.015625000000000,
        -0.014221191406250,
        -0.013000488281250,
        -0.011138916015625,
        -0.009613037109375,
        -0.008270263671875,
        -0.007110595703125,
        -0.006347656250000,
        -0.006164550781250,
        -0.006469726562500,
        -0.006622314453125,
        -0.007019042968750,
        -0.007690429687500,
        -0.008239746093750,
        -0.009033203125000,
        -0.010437011718750,
        -0.011169433593750,
        -0.013031005859375,
        -0.013275146484375,
        -0.014739990234375,
        -0.014862060546875,
        -0.015441894531250,
        -0.015136718750000,
        -0.013671875000000,
        -0.011962890625000,
        -0.008972167968750,
        -0.004608154296875,
        0.000305175781250,
        0.006134033203125,
        0.012176513671875,
        0.018188476562500,
        0.024444580078125,
        0.030212402343750,
        0.035430908203125,
        0.040618896484375,
        0.044616699218750,
        0.048858642578125,
        0.051361083984375,
        0.053924560546875,
        0.055114746093750,
        0.055450439453125,
        0.054107666015625,
        0.052185058593750,
        0.048828125000000,
        0.045440673828125,
        0.040740966796875,
        0.036407470703125,
        0.031555175781250,
        0.026275634765625,
        0.021240234375000,
        0.015045166015625,
        0.009826660156250,
        0.004180908203125,
        -0.001220703125000,
        -0.005889892578125,
        -0.010528564453125,
        -0.014495849609375,
        -0.017883300781250,
        -0.020812988281250,
        -0.023162841796875,
        -0.025268554687500,
        -0.026824951171875,
        -0.028411865234375,
        -0.029266357421875,
        -0.030212402343750,
        -0.030609130859375,
        -0.030395507812500,
        -0.029998779296875,
        -0.028991699218750,
        -0.027557373046875,
        -0.025543212890625,
        -0.023406982421875,
        -0.021484375000000,
        -0.018707275390625,
        -0.016204833984375,
        -0.013336181640625,
        -0.010070800781250,
        -0.006591796875000,
        -0.003448486328125,
        -0.000183105468750,
        0.002990722656250,
        0.005828857421875,
        0.007995605468750,
        0.009124755859375,
        0.010009765625000,
        0.009948730468750,
        0.009368896484375,
        0.007995605468750,
        0.006591796875000,
        0.004669189453125,
        0.002655029296875,
        -0.000213623046875,
        -0.002899169921875,
        -0.005676269531250,
        -0.009246826171875,
        -0.012390136718750,
        -0.015472412109375,
        -0.017852783203125,
        -0.020111083984375,
        -0.021270751953125,
        -0.022308349609375,
        -0.022705078125000,
        -0.023071289062500,
        -0.022460937500000,
        -0.021606445312500,
        -0.019958496093750,
        -0.018554687500000,
        -0.016021728515625,
        -0.013977050781250,
        -0.010772705078125,
        -0.007873535156250,
        -0.004577636718750,
        -0.001647949218750,
        0.001373291015625,
        0.004119873046875,
        0.006530761718750,
        0.008178710937500,
        0.010101318359375,
        0.011413574218750,
        0.012023925781250,
        0.012359619140625,
        0.012359619140625,
        0.011962890625000,
        0.010955810546875,
        0.010253906250000,
        0.008972167968750,
        0.007232666015625,
        0.005584716796875,
        0.003540039062500,
        0.001678466796875,
        -0.000274658203125,
        -0.001953125000000,
        -0.003509521484375,
        -0.004486083984375,
        -0.006256103515625,
        -0.006896972656250,
        -0.007507324218750,
        -0.007904052734375,
        -0.007110595703125,
        -0.006591796875000,
        -0.004974365234375,
        -0.003173828125000,
        -0.000854492187500,
        0.002075195312500,
        0.004760742187500,
        0.007843017578125,
        0.010498046875000,
        0.012634277343750,
        0.015045166015625,
        0.017395019531250,
        0.019226074218750,
        0.020935058593750,
        0.020996093750000,
        0.021820068359375,
        0.021636962890625,
        0.021423339843750,
        0.020538330078125,
        0.019378662109375,
        0.018280029296875,
        0.016296386718750,
        0.014434814453125,
        0.012573242187500,
        0.011352539062500,
        0.009277343750000,
        0.007873535156250,
        0.006408691406250,
        0.005310058593750,
        0.003845214843750,
        0.002258300781250,
        0.000885009765625,
        -0.000640869140625,
        -0.001617431640625,
        -0.002807617187500,
        -0.003753662109375,
        -0.004669189453125,
        -0.005432128906250,
        -0.006286621093750,
        -0.007812500000000,
        -0.008361816406250,
        -0.009857177734375,
        -0.010528564453125,
        -0.011352539062500,
        -0.011962890625000,
        -0.012939453125000,
        -0.012817382812500,
        -0.012908935546875,
        -0.012176513671875,
        -0.012054443359375,
        -0.010589599609375,
        -0.010162353515625,
        -0.009063720703125,
        -0.008331298828125,
        -0.006591796875000,
        -0.005493164062500,
        -0.004211425781250,
        -0.002807617187500,
        -0.002014160156250,
        -0.001159667968750,
        -0.000885009765625,
        -0.000488281250000,
        -0.000213623046875,
        -0.000396728515625,
        -0.001129150390625,
        -0.000549316406250,
        -0.001129150390625,
        -0.000823974609375,
        -0.001281738281250,
        -0.001098632812500,
        -0.000946044921875,
        -0.000549316406250,
        -0.000488281250000,
        0.000000000000000,
        0.000000000000000,
        0.000549316406250,
        0.000335693359375,
        0.000183105468750,
        0.000061035156250,
        -0.000335693359375,
        -0.000793457031250,
        -0.001373291015625,
        -0.002014160156250,
        -0.002319335937500,
        -0.003234863281250,
        -0.003051757812500,
        -0.003448486328125,
        -0.003387451171875,
        -0.003143310546875,
        -0.002593994140625,
        -0.001770019531250,
        -0.001159667968750,
        0.000427246093750,
        0.001281738281250,
        0.002929687500000,
        0.004211425781250,
        0.006652832031250,
        0.007751464843750,
        0.009399414062500,
        0.010650634765625,
        0.011688232421875,
        0.011810302734375,
        0.011962890625000,
        0.011138916015625,
        0.010009765625000,
        0.008514404296875,
        0.006988525390625,
        0.005310058593750,
        0.002685546875000,
        0.000885009765625,
        -0.001586914062500,
        -0.003875732421875,
        -0.006561279296875,
        -0.008636474609375,
        -0.010589599609375,
        -0.012298583984375,
        -0.013763427734375,
        -0.014251708984375,
        -0.014953613281250,
        -0.014587402343750,
        -0.014831542968750,
        -0.014099121093750,
        -0.013549804687500,
        -0.012542724609375,
        -0.011932373046875,
        -0.010650634765625,
        -0.010375976562500,
        -0.009368896484375,
        -0.008392333984375,
        -0.006805419921875,
        -0.005889892578125,
        -0.004089355468750,
        -0.003631591796875,
        -0.002227783203125,
        -0.001434326171875,
        -0.000274658203125,
        0.000823974609375,
        0.001922607421875,
        0.003204345703125,
        0.004425048828125,
        0.005645751953125,
        0.006530761718750,
        0.007263183593750,
        0.007873535156250,
        0.008392333984375,
        0.008209228515625,
        0.008026123046875,
        0.006500244140625,
        0.005981445312500,
        0.004394531250000,
        0.003204345703125,
        0.001586914062500,
        0.000701904296875,
        -0.001037597656250,
        -0.002349853515625,
        -0.003662109375000,
        -0.005157470703125,
        -0.006500244140625,
        -0.007354736328125,
        -0.008087158203125,
        -0.008544921875000,
        -0.008636474609375,
        -0.008270263671875,
        -0.007019042968750,
        -0.006591796875000,
        -0.005126953125000,
        -0.003753662109375,
        -0.002380371093750,
        -0.001037597656250,
        0.000427246093750,
        0.002258300781250,
        0.003387451171875,
        0.004516601562500,
        0.005645751953125,
        0.006439208984375,
        0.007171630859375,
        0.007446289062500,
        0.007843017578125,
        0.007354736328125,
        0.007263183593750,
        0.006591796875000,
        0.006195068359375,
        0.005493164062500,
        0.005096435546875,
        0.004364013671875,
        0.003784179687500,
        0.003448486328125,
        0.003021240234375,
        0.002319335937500,
        0.001770019531250,
        0.001159667968750,
        0.001281738281250,
        0.001281738281250,
        0.001220703125000,
        0.001373291015625,
        0.001892089843750,
        0.002807617187500,
        0.003112792968750,
        0.004211425781250,
        0.004852294921875,
        0.006225585937500,
        0.006805419921875,
        0.007751464843750,
        0.008850097656250,
        0.009307861328125,
        0.010131835937500,
        0.010528564453125,
        0.010620117187500,
        0.010223388671875,
        0.010131835937500,
        0.009460449218750,
        0.008666992187500,
        0.007446289062500,
        0.006134033203125,
        0.004486083984375,
        0.002807617187500,
        0.001403808593750,
        -0.000244140625000,
        -0.001800537109375,
        -0.003509521484375,
        -0.004516601562500,
        -0.006378173828125,
        -0.007324218750000,
        -0.008453369140625,
        -0.009216308593750,
        -0.009429931640625,
        -0.009674072265625,
        -0.008880615234375,
        -0.008697509765625,
        -0.007904052734375,
        -0.007476806640625,
        -0.006835937500000,
        -0.006195068359375,
        -0.005187988281250,
        -0.004730224609375,
        -0.004028320312500,
        -0.004211425781250,
        -0.003753662109375,
        -0.004028320312500,
        -0.003967285156250,
        -0.004119873046875,
        -0.004974365234375,
        -0.005493164062500,
        -0.006347656250000,
        -0.007019042968750,
        -0.007934570312500,
        -0.008697509765625,
        -0.009552001953125,
        -0.010223388671875,
        -0.010711669921875,
        -0.010894775390625,
        -0.011596679687500,
        -0.010711669921875,
        -0.010894775390625,
        -0.010437011718750,
        -0.010498046875000,
        -0.009704589843750,
        -0.009124755859375,
        -0.007995605468750,
        -0.007171630859375,
        -0.006256103515625,
        -0.005187988281250,
        -0.004516601562500,
        -0.002990722656250,
        -0.002899169921875,
        -0.001373291015625,
        -0.001190185546875,
        0.000152587890625,
        0.000457763671875,
        0.001831054687500,
        0.002044677734375,
        0.003234863281250,
        0.003692626953125,
        0.004699707031250,
        0.005279541015625,
        0.006042480468750,
        0.006530761718750,
        0.007629394531250,
        0.008117675781250,
        0.009063720703125,
        0.008941650390625,
        0.009094238281250,
        0.009338378906250,
        0.008697509765625,
        0.008422851562500,
        0.008209228515625,
        0.007141113281250,
        0.006072998046875,
        0.004730224609375,
        0.003875732421875,
        0.002227783203125,
        0.001373291015625,
        0.000091552734375,
        -0.000823974609375,
        -0.001800537109375,
        -0.002716064453125,
        -0.003112792968750,
        -0.003479003906250,
        -0.003753662109375,
        -0.004302978515625,
        -0.004028320312500,
        -0.003936767578125,
        -0.003448486328125,
        -0.003265380859375,
        -0.002441406250000,
        -0.002532958984375,
        -0.001892089843750,
        -0.001708984375000,
        -0.001861572265625,
        -0.001251220703125,
        -0.001251220703125,
        -0.001007080078125,
        -0.000701904296875,
        -0.000640869140625,
        -0.000183105468750,
        -0.000183105468750,
        0.000549316406250,
        0.000274658203125,
        0.000427246093750,
        0.000396728515625,
        0.000976562500000,
        0.000946044921875,
        0.001403808593750,
        0.001800537109375,
        0.002441406250000,
        0.002532958984375,
        0.002929687500000,
        0.003448486328125,
        0.003601074218750,
        0.003692626953125,
        0.003387451171875,
        0.003448486328125,
        0.003295898437500,
        0.003112792968750,
        0.002655029296875,
        0.002685546875000,
        0.002136230468750,
        0.001861572265625,
        0.001983642578125,
        0.001831054687500,
        0.002075195312500,
        0.002410888671875,
        0.002197265625000,
        0.002655029296875,
        0.002593994140625,
        0.004211425781250,
        0.004150390625000,
        0.005004882812500,
        0.005310058593750,
        0.005737304687500,
        0.005920410156250,
        0.006042480468750,
        0.006286621093750,
        0.006103515625000,
        0.005767822265625,
        0.005187988281250,
        0.005004882812500,
        0.004577636718750,
        0.003814697265625,
        0.003082275390625,
        0.002380371093750,
        0.001953125000000,
        0.000946044921875,
        0.000366210937500,
        -0.000518798828125,
        -0.001251220703125,
        -0.002044677734375,
        -0.002532958984375,
        -0.003051757812500,
        -0.003662109375000,
        -0.003723144531250,
        -0.004211425781250,
        -0.004364013671875,
        -0.005187988281250,
        -0.005249023437500,
        -0.005706787109375,
        -0.006042480468750,
        -0.006500244140625,
        -0.006896972656250,
        -0.007019042968750,
        -0.007751464843750,
        -0.007537841796875,
        -0.007812500000000,
        -0.007110595703125,
        -0.007141113281250,
        -0.006805419921875,
        -0.006439208984375,
        -0.005493164062500,
        -0.004852294921875,
        -0.004089355468750,
        -0.002838134765625,
        -0.002380371093750,
        -0.001129150390625,
        -0.000335693359375,
        0.000427246093750,
        0.001129150390625,
        0.001770019531250,
        0.002105712890625,
        0.002044677734375,
        0.002685546875000,
        0.002838134765625,
        0.003356933593750,
        0.003662109375000,
        0.003570556640625,
        0.003509521484375,
        0.003143310546875,
        0.003265380859375,
        0.002319335937500,
        0.002319335937500,
        0.001312255859375,
        0.001098632812500,
        0.000305175781250,
        -0.000457763671875,
        -0.000946044921875,
        -0.001739501953125,
        -0.002441406250000,
        -0.003112792968750,
        -0.003814697265625,
        -0.004364013671875,
        -0.005432128906250,
        -0.006072998046875,
        -0.006774902343750,
        -0.006805419921875,
        -0.007415771484375,
        -0.007598876953125,
        -0.008300781250000,
        -0.007934570312500,
        -0.007843017578125,
        -0.007080078125000,
        -0.006927490234375,
        -0.006561279296875,
        -0.005981445312500,
        -0.005523681640625,
        -0.004852294921875,
        -0.004669189453125,
        -0.003906250000000,
        -0.003814697265625,
        -0.003265380859375,
        -0.002868652343750,
        -0.002471923828125,
        -0.002136230468750,
        -0.002014160156250,
        -0.002166748046875,
        -0.002014160156250,
        -0.001678466796875,
        -0.001617431640625,
        -0.001831054687500,
        -0.001586914062500,
        -0.001495361328125,
        -0.001342773437500,
        -0.001098632812500,
        -0.000976562500000,
        -0.000610351562500,
        -0.000274658203125,
        0.000183105468750,
        0.001007080078125,
        0.001464843750000,
        0.002319335937500,
        0.003021240234375,
        0.003479003906250,
        0.004180908203125,
        0.005340576171875,
        0.005462646484375,
        0.006744384765625,
        0.006927490234375,
        0.007720947265625,
        0.007781982421875,
        0.008758544921875,
        0.009063720703125,
        0.009277343750000,
        0.010131835937500,
        0.009918212890625,
        0.010253906250000,
        0.010772705078125,
        0.010437011718750,
        0.010864257812500,
        0.010223388671875,
        0.010894775390625,
        0.009948730468750,
        0.009826660156250,
        0.008880615234375,
        0.007934570312500,
        0.007354736328125,
        0.006713867187500,
        0.005554199218750,
        0.004119873046875,
        0.003112792968750,
        0.002105712890625,
        0.000915527343750,
        -0.000427246093750,
        -0.001861572265625,
        -0.003021240234375,
        -0.003875732421875,
        -0.004882812500000,
        -0.005554199218750,
        -0.006958007812500,
        -0.007690429687500,
        -0.008483886718750,
        -0.008666992187500,
        -0.008728027343750,
        -0.009063720703125,
        -0.009155273437500,
        -0.008636474609375,
        -0.008300781250000,
        -0.007873535156250,
        -0.007171630859375,
        -0.006622314453125,
        -0.006134033203125,
        -0.005279541015625,
        -0.004852294921875,
        -0.003479003906250,
        -0.003326416015625,
        -0.002746582031250,
        -0.002380371093750,
        -0.001495361328125,
        -0.001586914062500,
        -0.001434326171875,
        -0.001159667968750,
        -0.001281738281250,
        -0.001159667968750,
        -0.000885009765625,
        -0.001098632812500,
        -0.001220703125000,
        -0.001464843750000,
        -0.001373291015625,
        -0.001556396484375,
        -0.001434326171875,
        -0.001373291015625,
        -0.001098632812500,
        -0.001037597656250,
        -0.000610351562500,
        -0.000305175781250,
        0.000274658203125,
        0.000244140625000,
        0.000762939453125,
        0.001403808593750,
        0.001220703125000,
        0.001983642578125,
        0.002288818359375,
        0.002777099609375,
        0.002868652343750,
        0.003082275390625,
        0.003143310546875,
        0.003417968750000,
        0.003448486328125,
        0.003356933593750,
        0.003173828125000,
        0.003540039062500,
        0.002593994140625,
        0.002593994140625,
        0.001983642578125,
        0.001922607421875,
        0.000976562500000,
        0.001068115234375,
        -0.000122070312500,
        -0.000213623046875,
        -0.000823974609375,
        -0.001403808593750,
        -0.001861572265625,
        -0.002807617187500,
        -0.002929687500000,
        -0.003417968750000,
        -0.003265380859375,
        -0.003723144531250,
        -0.004058837890625,
        -0.004241943359375,
        -0.004333496093750,
        -0.004241943359375,
        -0.003784179687500,
        -0.003936767578125,
        -0.003692626953125,
        -0.003112792968750,
        -0.003021240234375,
        -0.002746582031250,
        -0.002807617187500,
        -0.002288818359375,
        -0.002014160156250,
        -0.001678466796875,
        -0.001281738281250,
        -0.001403808593750,
        -0.001251220703125,
        -0.001098632812500,
        -0.001037597656250,
        -0.000762939453125,
        -0.000823974609375,
        -0.001037597656250,
        -0.000946044921875,
        -0.001037597656250,
        -0.001037597656250,
        -0.000976562500000,
        -0.001098632812500,
        -0.000701904296875,
        -0.000518798828125,
        -0.000457763671875,
        -0.000274658203125,
        0.000000000000000,
        0.000061035156250,
        0.000061035156250,
        0.000122070312500,
        -0.000030517578125,
        0.000213623046875,
        0.000122070312500,
        0.000396728515625,
        0.000335693359375,
        0.000457763671875,
        0.000457763671875,
        0.000091552734375,
        0.000000000000000,
        -0.000061035156250,
        -0.000061035156250,
        0.000152587890625,
        -0.000122070312500,
        -0.000335693359375,
        -0.000183105468750,
        -0.000854492187500,
        -0.000610351562500,
        -0.000701904296875,
        -0.001373291015625,
        -0.001312255859375,
        -0.001892089843750,
        -0.001739501953125,
        -0.002197265625000,
        -0.002044677734375,
        -0.002288818359375,
        -0.002319335937500,
        -0.001831054687500,
        -0.001525878906250,
        -0.001312255859375,
        -0.001007080078125,
        -0.000457763671875,
        0.000000000000000,
        0.000305175781250,
        0.000549316406250,
        0.001037597656250,
        0.001770019531250,
        0.002349853515625,
        0.002990722656250,
        0.003814697265625,
        0.003784179687500,
        0.004180908203125,
        0.004730224609375,
        0.005187988281250,
        0.005584716796875,
        0.005767822265625,
        0.005493164062500,
        0.005889892578125,
        0.005401611328125,
        0.005737304687500,
        0.005615234375000,
        0.005218505859375,
        0.004943847656250,
        0.004730224609375,
        0.004119873046875,
        0.003845214843750,
        0.003753662109375,
        0.003448486328125,
        0.003173828125000,
        0.002563476562500,
        0.002349853515625,
        0.001922607421875,
        0.001922607421875,
        0.001678466796875,
        0.001098632812500,
        0.000885009765625,
        0.000701904296875,
        0.000244140625000,
        -0.000152587890625,
        -0.000457763671875,
        -0.000885009765625,
        -0.001495361328125,
        -0.001647949218750,
        -0.001617431640625,
        -0.001861572265625,
        -0.002593994140625,
        -0.002716064453125,
        -0.003112792968750,
        -0.003356933593750,
        -0.003417968750000,
        -0.003692626953125,
        -0.003692626953125,
        -0.003753662109375,
        -0.003967285156250,
        -0.004516601562500,
        -0.004669189453125,
        -0.004791259765625,
        -0.004882812500000,
        -0.005218505859375,
        -0.004730224609375,
        -0.005065917968750,
        -0.005126953125000,
        -0.004608154296875,
        -0.004699707031250,
        -0.004699707031250,
        -0.004455566406250,
        -0.004394531250000,
        -0.003845214843750,
        -0.003845214843750,
        -0.003356933593750,
        -0.003265380859375,
        -0.003112792968750,
        -0.002777099609375,
        -0.002136230468750,
        -0.002075195312500,
        -0.001556396484375,
        -0.001495361328125,
        -0.001159667968750,
        -0.000579833984375,
        -0.000732421875000,
        -0.000183105468750,
        0.000244140625000,
        0.000518798828125,
        0.001007080078125,
        0.001037597656250,
        0.001525878906250,
        0.001647949218750,
        0.001708984375000,
        0.001922607421875,
        0.002258300781250,
        0.001861572265625,
        0.002227783203125,
        0.002502441406250,
        0.002471923828125,
        0.002624511718750,
        0.002197265625000,
        0.002624511718750,
        0.002349853515625,
        0.002746582031250,
        0.002563476562500,
        0.002532958984375,
        0.002929687500000,
        0.002410888671875,
        0.002349853515625,
        0.002380371093750,
        0.002532958984375,
        0.002258300781250,
        0.002227783203125,
        0.002136230468750,
        0.001770019531250,
        0.001647949218750,
        0.001312255859375,
        0.001037597656250,
        0.000488281250000,
        0.000030517578125,
        -0.000061035156250,
        -0.000762939453125,
        -0.000793457031250,
        -0.001708984375000,
        -0.001739501953125,
        -0.002166748046875,
        -0.002716064453125,
        -0.002532958984375,
        -0.003082275390625,
        -0.003479003906250,
        -0.003631591796875,
        -0.004119873046875,
        -0.004150390625000,
        -0.004150390625000,
        -0.004364013671875,
        -0.004119873046875,
        -0.003906250000000,
        -0.003784179687500,
        -0.003417968750000,
        -0.003112792968750,
        -0.002929687500000,
        -0.002319335937500,
        -0.002105712890625,
        -0.001892089843750,
        -0.001098632812500,
        -0.000976562500000,
        -0.000579833984375,
        -0.000213623046875,
        -0.000122070312500,
        0.000122070312500,
        0.000244140625000,
        0.000579833984375,
        0.000549316406250,
        0.000885009765625,
        0.000732421875000,
        0.001007080078125,
        0.000885009765625,
        0.001007080078125,
        0.000518798828125,
        0.000579833984375,
        0.000854492187500,
        0.000823974609375,
        0.000762939453125,
        0.000366210937500,
        0.000701904296875,
        0.000396728515625,
        0.000976562500000,
        0.000579833984375,
        0.000976562500000,
        0.000885009765625,
        0.001220703125000,
        0.001342773437500,
        0.001525878906250,
        0.001556396484375,
        0.001556396484375,
        0.001739501953125,
        0.002014160156250,
        0.002014160156250,
        0.001800537109375,
        0.001617431640625,
        0.001831054687500,
        0.001983642578125,
        0.001800537109375,
        0.002014160156250,
        0.001953125000000,
        0.002075195312500,
        0.002075195312500,
        0.001495361328125,
        0.001220703125000,
        0.000885009765625,
        0.001342773437500,
        0.001129150390625,
        0.001068115234375,
        0.001220703125000,
        0.001007080078125,
        0.001251220703125,
        0.000427246093750,
        0.000732421875000,
        -0.000091552734375,
        0.000030517578125,
        0.000030517578125,
        -0.000030517578125,
        -0.000030517578125,
        -0.000366210937500,
        -0.000427246093750,
        -0.000579833984375,
        -0.000152587890625,
        -0.000488281250000,
        -0.000427246093750,
        -0.000305175781250,
        0.000122070312500,
        -0.000183105468750,
        -0.000152587890625,
        -0.000579833984375,
        -0.000579833984375,
        -0.000122070312500,
        0.000183105468750,
        -0.000030517578125,
        0.000274658203125,
        0.000335693359375,
        0.000549316406250,
        0.000610351562500,
        0.000152587890625,
        0.000396728515625,
        0.000152587890625,
        0.000183105468750,
        -0.000244140625000,
        -0.000152587890625,
        -0.000274658203125,
        -0.000640869140625,
        -0.000793457031250,
        -0.000762939453125,
        -0.000946044921875,
        -0.000946044921875,
        -0.001281738281250,
        -0.001434326171875,
        -0.001434326171875,
        -0.001922607421875,
        -0.001678466796875,
        -0.002014160156250,
        -0.001770019531250,
        -0.002166748046875,
        -0.001892089843750,
        -0.002014160156250,
        -0.001892089843750,
        -0.001922607421875,
        -0.001892089843750,
        -0.001892089843750,
        -0.001464843750000,
        -0.001739501953125,
        -0.001281738281250,
        -0.001464843750000,
        -0.001190185546875,
        -0.001220703125000,
        -0.000976562500000,
        -0.000946044921875,
        -0.000671386718750,
        -0.000732421875000,
        -0.000518798828125,
        -0.000518798828125,
        -0.000396728515625,
        -0.000457763671875,
        -0.000213623046875,
        -0.000274658203125,
        -0.000305175781250,
        -0.000213623046875,
        -0.000213623046875,
        -0.000152587890625,
        -0.000213623046875,
        -0.000152587890625,
        -0.000091552734375,
        -0.000183105468750,
        -0.000091552734375,
        -0.000091552734375,
        -0.000122070312500,
        0.000061035156250,
        -0.000030517578125,
        0.000000000000000,
        0.000091552734375,
        -0.000061035156250,
        0.000091552734375,
        -0.000030517578125,
        0.000030517578125,
    }, {
        /* 02-colin.wav */
        0.006225585937500,
        -0.019104003906250,
        -0.137054443359375,
        -0.343658447265625,
        -0.391510009765625,
        -0.166503906250000,
        0.022644042968750,
        -0.086883544921875,
        -0.282806396484375,
        -0.248474121093750,
        -0.014160156250000,
        0.235809326171875,
        0.398040771484375,
        0.411254882812500,
        0.319488525390625,
        0.233398437500000,
        0.185455322265625,
        0.229339599609375,
        0.383728027343750,
        0.390472412109375,
        0.045074462890625,
        -0.271423339843750,
        -0.091552734375000,
        0.289916992187500,
        0.248382568359375,
        -0.209167480468750,
        -0.473449707031250,
        -0.181640625000000,
        0.287841796875000,
        0.414215087890625,
        0.256500244140625,
        0.173278808593750,
        0.219512939453125,
        0.199584960937500,
        0.029815673828125,
        -0.204925537109375,
        -0.374023437500000,
        -0.384155273437500,
        -0.222259521484375,
        0.016113281250000,
        0.183044433593750,
        0.255493164062500,
        0.439270019531250,
        0.794769287109375,
        0.962158203125000,
        0.729278564453125,
        0.334411621093750,
        -0.000305175781250,
        -0.309417724609375,
        -0.616241455078125,
        -0.728912353515625,
        -0.549591064453125,
        -0.308624267578125,
        -0.303436279296875,
        -0.537261962890625,
        -0.700775146484375,
        -0.602966308593750,
        -0.434082031250000,
        -0.469085693359375,
        -0.640106201171875,
        -0.588165283203125,
        -0.257629394531250,
        -0.009063720703125,
        -0.045593261718750,
        -0.192901611328125,
        -0.228149414062500,
        -0.159118652343750,
        -0.135711669921875,
        -0.172271728515625,
        -0.133636474609375,
        0.004577636718750,
        0.122192382812500,
        0.143737792968750,
        0.096191406250000,
        0.036468505859375,
        0.054840087890625,
        0.208648681640625,
        0.389221191406250,
        0.447662353515625,
        0.306457519531250,
        -0.014129638671875,
        -0.323608398437500,
        -0.439758300781250,
        -0.366607666015625,
        -0.218902587890625,
        -0.110626220703125,
        -0.063293457031250,
        -0.051147460937500,
        -0.093536376953125,
        -0.232482910156250,
        -0.401245117187500,
        -0.467956542968750,
        -0.458343505859375,
        -0.460845947265625,
        -0.426025390625000,
        -0.275054931640625,
        0.005981445312500,
        0.355285644531250,
        0.635589599609375,
        0.727142333984375,
        0.627563476562500,
        0.430236816406250,
        0.178161621093750,
        -0.091613769531250,
        -0.220336914062500,
        -0.088470458984375,
        0.172882080078125,
        0.292297363281250,
        0.239196777343750,
        0.311523437500000,
        0.653869628906250,
        0.983856201171875,
        0.999938964843750,
        0.800201416015625,
        0.641540527343750,
        0.544311523437500,
        0.416625976562500,
        0.297576904296875,
        0.255157470703125,
        0.222198486328125,
        0.097412109375000,
        -0.077392578125000,
        -0.182617187500000,
        -0.202423095703125,
        -0.200347900390625,
        -0.165466308593750,
        -0.053680419921875,
        0.102508544921875,
        0.230957031250000,
        0.275360107421875,
        0.199829101562500,
        0.038818359375000,
        -0.059967041015625,
        0.002410888671875,
        0.101623535156250,
        0.032684326171875,
        -0.229553222656250,
        -0.492126464843750,
        -0.540618896484375,
        -0.339202880859375,
        -0.085632324218750,
        -0.010711669921875,
        -0.101013183593750,
        -0.153259277343750,
        -0.061065673828125,
        0.093505859375000,
        0.218078613281250,
        0.309478759765625,
        0.359954833984375,
        0.317352294921875,
        0.195129394531250,
        0.100311279296875,
        0.053161621093750,
        -0.049102783203125,
        -0.202331542968750,
        -0.267181396484375,
        -0.178558349609375,
        -0.041900634765625,
        0.020507812500000,
        0.029663085937500,
        0.066375732421875,
        0.107727050781250,
        0.033569335937500,
        -0.178771972656250,
        -0.396118164062500,
        -0.503448486328125,
        -0.484130859375000,
        -0.374176025390625,
        -0.227874755859375,
        -0.090423583984375,
        -0.007293701171875,
        0.001678466796875,
        -0.054229736328125,
        -0.156829833984375,
        -0.285583496093750,
        -0.406494140625000,
        -0.463256835937500,
        -0.423492431640625,
        -0.289001464843750,
        -0.050994873046875,
        0.256439208984375,
        0.501220703125000,
        0.534118652343750,
        0.346679687500000,
        0.079162597656250,
        -0.137542724609375,
        -0.265930175781250,
        -0.315795898437500,
        -0.294891357421875,
        -0.220611572265625,
        -0.128631591796875,
        -0.029479980468750,
        0.111022949218750,
        0.266204833984375,
        0.324768066406250,
        0.240112304687500,
        0.110443115234375,
        0.057281494140625,
        0.080780029296875,
        0.116577148437500,
        0.153045654296875,
        0.211517333984375,
        0.270904541015625,
        0.289367675781250,
        0.263122558593750,
        0.195312500000000,
        0.056854248046875,
        -0.140228271484375,
        -0.330932617187500,
        -0.457916259765625,
        -0.483581542968750,
        -0.378112792968750,
        -0.168884277343750,
        0.026885986328125,
        0.119689941406250,
        0.137817382812500,
        0.144256591796875,
        0.135131835937500,
        0.056701660156250,
        -0.085662841796875,
        -0.208343505859375,
        -0.240295410156250,
        -0.202697753906250,
        -0.169677734375000,
        -0.145477294921875,
        -0.075286865234375,
        0.040740966796875,
        0.140319824218750,
        0.172515869140625,
        0.140411376953125,
        0.077331542968750,
        0.010101318359375,
        -0.048065185546875,
        -0.084442138671875,
        -0.091522216796875,
        -0.096557617187500,
        -0.140441894531250,
        -0.211212158203125,
        -0.232452392578125,
        -0.153259277343750,
        -0.028930664062500,
        0.046630859375000,
        0.074554443359375,
        0.116912841796875,
        0.170623779296875,
        0.178802490234375,
        0.129455566406250,
        0.054992675781250,
        -0.026947021484375,
        -0.121551513671875,
        -0.219177246093750,
        -0.280426025390625,
        -0.288665771484375,
        -0.278015136718750,
        -0.278991699218750,
        -0.289398193359375,
        -0.305969238281250,
        -0.316741943359375,
        -0.278594970703125,
        -0.163360595703125,
        -0.000122070312500,
        0.141662597656250,
        0.223693847656250,
        0.270507812500000,
        0.313842773437500,
        0.345397949218750,
        0.355163574218750,
        0.358825683593750,
        0.359954833984375,
        0.337860107421875,
        0.298645019531250,
        0.278808593750000,
        0.317077636718750,
        0.410217285156250,
        0.502044677734375,
        0.525115966796875,
        0.440612792968750,
        0.268157958984375,
        0.071746826171875,
        -0.079864501953125,
        -0.157409667968750,
        -0.177032470703125,
        -0.154876708984375,
        -0.101776123046875,
        -0.038574218750000,
        0.010864257812500,
        0.044403076171875,
        0.072509765625000,
        0.089935302734375,
        0.074005126953125,
        0.016571044921875,
        -0.049011230468750,
        -0.059875488281250,
        0.015686035156250,
        0.140930175781250,
        0.241699218750000,
        0.258850097656250,
        0.196990966796875,
        0.122924804687500,
        0.087738037109375,
        0.071044921875000,
        0.032318115234375,
        -0.023803710937500,
        -0.057708740234375,
        -0.046783447265625,
        -0.007873535156250,
        0.027618408203125,
        0.045989990234375,
        0.054107666015625,
        0.051849365234375,
        0.037322998046875,
        0.007720947265625,
        -0.034606933593750,
        -0.072235107421875,
        -0.095550537109375,
        -0.119140625000000,
        -0.162628173828125,
        -0.215393066406250,
        -0.247253417968750,
        -0.242584228515625,
        -0.211730957031250,
        -0.176361083984375,
        -0.156524658203125,
        -0.161285400390625,
        -0.180206298828125,
        -0.187652587890625,
        -0.182312011718750,
        -0.186218261718750,
        -0.207641601562500,
        -0.228179931640625,
        -0.229949951171875,
        -0.201568603515625,
        -0.135742187500000,
        -0.045715332031250,
        0.033447265625000,
        0.073974609375000,
        0.087738037109375,
        0.107025146484375,
        0.142089843750000,
        0.172088623046875,
        0.184967041015625,
        0.192718505859375,
        0.201965332031250,
        0.196136474609375,
        0.163085937500000,
        0.113494873046875,
        0.068817138671875,
        0.032043457031250,
        -0.010772705078125,
        -0.074645996093750,
        -0.149047851562500,
        -0.209197998046875,
        -0.234191894531250,
        -0.214752197265625,
        -0.153350830078125,
        -0.060974121093750,
        0.038299560546875,
        0.103790283203125,
        0.105285644531250,
        0.052795410156250,
        -0.005096435546875,
        -0.033569335937500,
        -0.038543701171875,
        -0.051849365234375,
        -0.082733154296875,
        -0.106719970703125,
        -0.101531982421875,
        -0.069732666015625,
        -0.032806396484375,
        -0.010833740234375,
        -0.010650634765625,
        -0.024597167968750,
        -0.042144775390625,
        -0.050689697265625,
        -0.032135009765625,
        0.016845703125000,
        0.074310302734375,
        0.112304687500000,
        0.112518310546875,
        0.073120117187500,
        0.008941650390625,
        -0.062194824218750,
        -0.129791259765625,
        -0.182067871093750,
        -0.209075927734375,
        -0.206787109375000,
        -0.175323486328125,
        -0.115539550781250,
        -0.029418945312500,
        0.062530517578125,
        0.119537353515625,
        0.114288330078125,
        0.062530517578125,
        0.005432128906250,
        -0.034820556640625,
        -0.059661865234375,
        -0.074829101562500,
        -0.081207275390625,
        -0.082824707031250,
        -0.089752197265625,
        -0.095611572265625,
        -0.079193115234375,
        -0.031524658203125,
        0.022583007812500,
        0.045562744140625,
        0.028869628906250,
        0.006896972656250,
        0.008117675781250,
        0.020446777343750,
        0.018646240234375,
        0.000366210937500,
        -0.023223876953125,
        -0.046325683593750,
        -0.067626953125000,
        -0.083282470703125,
        -0.084289550781250,
        -0.064758300781250,
        -0.037445068359375,
        -0.022766113281250,
        -0.022705078125000,
        -0.020935058593750,
        0.005615234375000,
        0.061218261718750,
        0.130126953125000,
        0.189758300781250,
        0.228912353515625,
        0.256835937500000,
        0.283233642578125,
        0.305145263671875,
        0.308105468750000,
        0.282836914062500,
        0.232757568359375,
        0.165618896484375,
        0.092712402343750,
        0.032196044921875,
        -0.000823974609375,
        -0.008087158203125,
        -0.003417968750000,
        0.007019042968750,
        0.023681640625000,
        0.044525146484375,
        0.062622070312500,
        0.074584960937500,
        0.080780029296875,
        0.076995849609375,
        0.054656982421875,
        0.018585205078125,
        -0.008819580078125,
        -0.013946533203125,
        -0.001770019531250,
        0.017242431640625,
        0.031951904296875,
        0.033599853515625,
        0.023864746093750,
        0.012756347656250,
        0.009643554687500,
        0.016723632812500,
        0.032440185546875,
        0.049011230468750,
        0.060729980468750,
        0.075561523437500,
        0.101745605468750,
        0.133392333984375,
        0.147460937500000,
        0.125091552734375,
        0.071197509765625,
        0.012359619140625,
        -0.025939941406250,
        -0.038879394531250,
        -0.035339355468750,
        -0.020172119140625,
        0.004211425781250,
        0.033599853515625,
        0.057098388671875,
        0.069152832031250,
        0.073577880859375,
        0.072631835937500,
        0.063140869140625,
        0.044921875000000,
        0.026794433593750,
        0.013549804687500,
        -0.004089355468750,
        -0.038452148437500,
        -0.090942382812500,
        -0.145385742187500,
        -0.182922363281250,
        -0.201843261718750,
        -0.211791992187500,
        -0.216827392578125,
        -0.213500976562500,
        -0.196441650390625,
        -0.166168212890625,
        -0.131561279296875,
        -0.102600097656250,
        -0.079925537109375,
        -0.063018798828125,
        -0.054931640625000,
        -0.060241699218750,
        -0.074798583984375,
        -0.087158203125000,
        -0.083160400390625,
        -0.063354492187500,
        -0.043731689453125,
        -0.040344238281250,
        -0.053466796875000,
        -0.070281982421875,
        -0.080902099609375,
        -0.085052490234375,
        -0.089904785156250,
        -0.095550537109375,
        -0.094177246093750,
        -0.082702636718750,
        -0.069305419921875,
        -0.061096191406250,
        -0.054595947265625,
        -0.040283203125000,
        -0.017913818359375,
        0.004608154296875,
        0.020233154296875,
        0.032928466796875,
        0.051635742187500,
        0.080291748046875,
        0.110565185546875,
        0.132446289062500,
        0.135406494140625,
        0.116699218750000,
        0.081481933593750,
        0.038787841796875,
        -0.000762939453125,
        -0.027770996093750,
        -0.036682128906250,
        -0.029632568359375,
        -0.017028808593750,
        -0.007049560546875,
        -0.004882812500000,
        -0.011444091796875,
        -0.027343750000000,
        -0.050140380859375,
        -0.070983886718750,
        -0.080108642578125,
        -0.074462890625000,
        -0.057861328125000,
        -0.038665771484375,
        -0.017211914062500,
        0.010498046875000,
        0.046417236328125,
        0.079772949218750,
        0.100097656250000,
        0.103637695312500,
        0.096954345703125,
        0.087066650390625,
        0.077301025390625,
        0.067474365234375,
        0.056060791015625,
        0.043853759765625,
        0.031066894531250,
        0.018188476562500,
        0.004272460937500,
        -0.011535644531250,
        -0.028381347656250,
        -0.046173095703125,
        -0.062805175781250,
        -0.075988769531250,
        -0.085205078125000,
        -0.091430664062500,
        -0.097473144531250,
        -0.100311279296875,
        -0.093688964843750,
        -0.072479248046875,
        -0.041473388671875,
        -0.012634277343750,
        0.005981445312500,
        0.014038085937500,
        0.017150878906250,
        0.017242431640625,
        0.012329101562500,
        0.000274658203125,
        -0.019073486328125,
        -0.042297363281250,
        -0.065093994140625,
        -0.083618164062500,
        -0.093139648437500,
        -0.087738037109375,
        -0.064422607421875,
        -0.025451660156250,
        0.018157958984375,
        0.052886962890625,
        0.076202392578125,
        0.098266601562500,
        0.126678466796875,
        0.154266357421875,
        0.166076660156250,
        0.156982421875000,
        0.134460449218750,
        0.110198974609375,
        0.089599609375000,
        0.072631835937500,
        0.056427001953125,
        0.039459228515625,
        0.021697998046875,
        0.006103515625000,
        -0.001403808593750,
        0.004302978515625,
        0.022430419921875,
        0.044616699218750,
        0.060394287109375,
        0.062866210937500,
        0.052581787109375,
        0.036773681640625,
        0.024505615234375,
        0.019775390625000,
        0.017669677734375,
        0.012298583984375,
        0.007659912109375,
        0.014678955078125,
        0.038452148437500,
        0.071166992187500,
        0.098907470703125,
        0.113800048828125,
        0.114593505859375,
        0.106414794921875,
        0.095611572265625,
        0.087036132812500,
        0.080200195312500,
        0.066955566406250,
        0.046966552734375,
        0.028411865234375,
        0.022430419921875,
        0.027496337890625,
        0.031982421875000,
        0.026977539062500,
        0.011840820312500,
        -0.006744384765625,
        -0.021026611328125,
        -0.023162841796875,
        -0.010528564453125,
        0.011016845703125,
        0.027923583984375,
        0.029907226562500,
        0.017517089843750,
        -0.002044677734375,
        -0.021575927734375,
        -0.040802001953125,
        -0.062561035156250,
        -0.086364746093750,
        -0.110443115234375,
        -0.131561279296875,
        -0.148376464843750,
        -0.158477783203125,
        -0.159210205078125,
        -0.151824951171875,
        -0.139617919921875,
        -0.124389648437500,
        -0.101257324218750,
        -0.067352294921875,
        -0.025817871093750,
        0.015228271484375,
        0.046813964843750,
        0.065979003906250,
        0.074188232421875,
        0.074737548828125,
        0.070068359375000,
        0.061706542968750,
        0.048645019531250,
        0.032257080078125,
        0.015502929687500,
        0.003784179687500,
        -0.002136230468750,
        -0.007415771484375,
        -0.018981933593750,
        -0.036132812500000,
        -0.052520751953125,
        -0.058959960937500,
        -0.053863525390625,
        -0.040954589843750,
        -0.027374267578125,
        -0.018615722656250,
        -0.015716552734375,
        -0.019714355468750,
        -0.029907226562500,
        -0.046295166015625,
        -0.065124511718750,
        -0.078735351562500,
        -0.080474853515625,
        -0.068908691406250,
        -0.049896240234375,
        -0.032684326171875,
        -0.025115966796875,
        -0.031158447265625,
        -0.051116943359375,
        -0.079498291015625,
        -0.108184814453125,
        -0.127868652343750,
        -0.136962890625000,
        -0.140075683593750,
        -0.139373779296875,
        -0.130615234375000,
        -0.107849121093750,
        -0.071838378906250,
        -0.031738281250000,
        0.002807617187500,
        0.027130126953125,
        0.042846679687500,
        0.053985595703125,
        0.063415527343750,
        0.072998046875000,
        0.079101562500000,
        0.076721191406250,
        0.065338134765625,
        0.051391601562500,
        0.042419433593750,
        0.039825439453125,
        0.037658691406250,
        0.030120849609375,
        0.018096923828125,
        0.005096435546875,
        -0.004913330078125,
        -0.012084960937500,
        -0.018859863281250,
        -0.027587890625000,
        -0.039367675781250,
        -0.051055908203125,
        -0.057922363281250,
        -0.056640625000000,
        -0.049072265625000,
        -0.041046142578125,
        -0.035278320312500,
        -0.031738281250000,
        -0.025665283203125,
        -0.012756347656250,
        0.007171630859375,
        0.030883789062500,
        0.051483154296875,
        0.061431884765625,
        0.058776855468750,
        0.047821044921875,
        0.038909912109375,
        0.039947509765625,
        0.049072265625000,
        0.056549072265625,
        0.055023193359375,
        0.045623779296875,
        0.037933349609375,
        0.040313720703125,
        0.052368164062500,
        0.065002441406250,
        0.071868896484375,
        0.075531005859375,
        0.082305908203125,
        0.094482421875000,
        0.107055664062500,
        0.113494873046875,
        0.113220214843750,
        0.105621337890625,
        0.092376708984375,
        0.077301025390625,
        0.066162109375000,
        0.061492919921875,
        0.057250976562500,
        0.044281005859375,
        0.018310546875000,
        -0.013885498046875,
        -0.041015625000000,
        -0.058990478515625,
        -0.071441650390625,
        -0.081939697265625,
        -0.086669921875000,
        -0.079162597656250,
        -0.059692382812500,
        -0.035888671875000,
        -0.014160156250000,
        0.002136230468750,
        0.011505126953125,
        0.013061523437500,
        0.007720947265625,
        0.000274658203125,
        -0.004272460937500,
        -0.003479003906250,
        0.002716064453125,
        0.013854980468750,
        0.028778076171875,
        0.046295166015625,
        0.063446044921875,
        0.076873779296875,
        0.083618164062500,
        0.082550048828125,
        0.075256347656250,
        0.065612792968750,
        0.056884765625000,
        0.049774169921875,
        0.042022705078125,
        0.032226562500000,
        0.019744873046875,
        0.006134033203125,
        -0.006195068359375,
        -0.017425537109375,
        -0.026824951171875,
        -0.034820556640625,
        -0.041717529296875,
        -0.047332763671875,
        -0.051208496093750,
        -0.052764892578125,
        -0.052307128906250,
        -0.051330566406250,
        -0.049468994140625,
        -0.047607421875000,
        -0.045623779296875,
        -0.043884277343750,
        -0.043212890625000,
        -0.045318603515625,
        -0.049316406250000,
        -0.051300048828125,
        -0.044738769531250,
        -0.029663085937500,
        -0.010681152343750,
        0.004516601562500,
        0.013763427734375,
        0.019500732421875,
        0.024810791015625,
        0.030761718750000,
        0.036743164062500,
        0.041961669921875,
        0.044525146484375,
        0.040954589843750,
        0.029785156250000,
        0.015777587890625,
        0.003509521484375,
        -0.006378173828125,
        -0.018585205078125,
        -0.035522460937500,
        -0.052795410156250,
        -0.062377929687500,
        -0.061370849609375,
        -0.053985595703125,
        -0.046295166015625,
        -0.042205810546875,
        -0.042572021484375,
        -0.047607421875000,
        -0.052551269531250,
        -0.052703857421875,
        -0.045867919921875,
        -0.034332275390625,
        -0.024169921875000,
        -0.018218994140625,
        -0.016052246093750,
        -0.013610839843750,
        -0.010681152343750,
        -0.008972167968750,
        -0.010803222656250,
        -0.013977050781250,
        -0.012786865234375,
        -0.003540039062500,
        0.009613037109375,
        0.021606445312500,
        0.028350830078125,
        0.029571533203125,
        0.027313232421875,
        0.024627685546875,
        0.024658203125000,
        0.028472900390625,
        0.033142089843750,
        0.035552978515625,
        0.033874511718750,
        0.030914306640625,
        0.028839111328125,
        0.027374267578125,
        0.022583007812500,
        0.011688232421875,
        -0.004150390625000,
        -0.020324707031250,
        -0.032379150390625,
        -0.039459228515625,
        -0.043273925781250,
        -0.047119140625000,
        -0.053436279296875,
        -0.061431884765625,
        -0.068054199218750,
        -0.071044921875000,
        -0.071350097656250,
        -0.071533203125000,
        -0.071929931640625,
        -0.071563720703125,
        -0.069824218750000,
        -0.068450927734375,
        -0.067596435546875,
        -0.064544677734375,
        -0.056579589843750,
        -0.044586181640625,
        -0.033569335937500,
        -0.025665283203125,
        -0.018920898437500,
        -0.010009765625000,
        0.000732421875000,
        0.009582519531250,
        0.015747070312500,
        0.021911621093750,
        0.030639648437500,
        0.040374755859375,
        0.047424316406250,
        0.049713134765625,
        0.046752929687500,
        0.041717529296875,
        0.036132812500000,
        0.034240722656250,
        0.037017822265625,
        0.043457031250000,
        0.048553466796875,
        0.048950195312500,
        0.046600341796875,
        0.045074462890625,
        0.046630859375000,
        0.047241210937500,
        0.042877197265625,
        0.035522460937500,
        0.031585693359375,
        0.035827636718750,
        0.044921875000000,
        0.051116943359375,
        0.051269531250000,
        0.047760009765625,
        0.045593261718750,
        0.045379638671875,
        0.043151855468750,
        0.038543701171875,
        0.033233642578125,
        0.028625488281250,
        0.024749755859375,
        0.020385742187500,
        0.019195556640625,
        0.024444580078125,
        0.035522460937500,
        0.047668457031250,
        0.058380126953125,
        0.067687988281250,
        0.076293945312500,
        0.082702636718750,
        0.084838867187500,
        0.082275390625000,
        0.075958251953125,
        0.067993164062500,
        0.062103271484375,
        0.060607910156250,
        0.063873291015625,
        0.067840576171875,
        0.067901611328125,
        0.062042236328125,
        0.052795410156250,
        0.044830322265625,
        0.038818359375000,
        0.033233642578125,
        0.024841308593750,
        0.012634277343750,
        -0.001831054687500,
        -0.016510009765625,
        -0.030090332031250,
        -0.041534423828125,
        -0.051391601562500,
        -0.060119628906250,
        -0.068115234375000,
        -0.075286865234375,
        -0.080718994140625,
        -0.084625244140625,
        -0.087066650390625,
        -0.087463378906250,
        -0.086090087890625,
        -0.083404541015625,
        -0.079925537109375,
        -0.074066162109375,
        -0.065155029296875,
        -0.055389404296875,
        -0.047760009765625,
        -0.044219970703125,
        -0.042480468750000,
        -0.039794921875000,
        -0.034698486328125,
        -0.028808593750000,
        -0.022552490234375,
        -0.016052246093750,
        -0.008514404296875,
        -0.000946044921875,
        0.005218505859375,
        0.007751464843750,
        0.006317138671875,
        0.000946044921875,
        -0.006683349609375,
        -0.013214111328125,
        -0.014434814453125,
        -0.011566162109375,
        -0.007354736328125,
        -0.007110595703125,
        -0.011474609375000,
        -0.018280029296875,
        -0.024719238281250,
        -0.029388427734375,
        -0.034057617187500,
        -0.042755126953125,
        -0.054931640625000,
        -0.066162109375000,
        -0.070617675781250,
        -0.066894531250000,
        -0.059509277343750,
        -0.053192138671875,
        -0.049194335937500,
        -0.044586181640625,
        -0.036682128906250,
        -0.026641845703125,
        -0.016357421875000,
        -0.008514404296875,
        -0.003845214843750,
        -0.002075195312500,
        -0.001190185546875,
        0.001251220703125,
        0.005615234375000,
        0.011901855468750,
        0.018615722656250,
        0.025970458984375,
        0.032684326171875,
        0.036376953125000,
        0.037261962890625,
        0.036254882812500,
        0.035583496093750,
        0.032501220703125,
        0.026458740234375,
        0.020294189453125,
        0.018280029296875,
        0.020629882812500,
        0.023132324218750,
        0.020751953125000,
        0.013885498046875,
        0.004180908203125,
        -0.004821777343750,
        -0.011352539062500,
        -0.013854980468750,
        -0.012908935546875,
        -0.011383056640625,
        -0.010894775390625,
        -0.011108398437500,
        -0.010192871093750,
        -0.008453369140625,
        -0.007232666015625,
        -0.006774902343750,
        -0.007049560546875,
        -0.007659912109375,
        -0.009124755859375,
        -0.010345458984375,
        -0.009490966796875,
        -0.006744384765625,
        -0.005493164062500,
        -0.006988525390625,
        -0.009155273437500,
        -0.008941650390625,
        -0.006378173828125,
        -0.004882812500000,
        -0.006011962890625,
        -0.007659912109375,
        -0.006927490234375,
        -0.003387451171875,
        0.001098632812500,
        0.005157470703125,
        0.008789062500000,
        0.013488769531250,
        0.019165039062500,
        0.024749755859375,
        0.027038574218750,
        0.023986816406250,
        0.015045166015625,
        0.002685546875000,
        -0.010528564453125,
        -0.021392822265625,
        -0.028747558593750,
        -0.031402587890625,
        -0.029937744140625,
        -0.024780273437500,
        -0.018585205078125,
        -0.012390136718750,
        -0.006469726562500,
        -0.000488281250000,
        0.004608154296875,
        0.007202148437500,
        0.008636474609375,
        0.009887695312500,
        0.012573242187500,
        0.015533447265625,
        0.018798828125000,
        0.022186279296875,
        0.026702880859375,
        0.031646728515625,
        0.036163330078125,
        0.040527343750000,
        0.045043945312500,
        0.047485351562500,
        0.047882080078125,
        0.048126220703125,
        0.051116943359375,
        0.056518554687500,
        0.059844970703125,
        0.058746337890625,
        0.054656982421875,
        0.050506591796875,
        0.047760009765625,
        0.046600341796875,
        0.046569824218750,
        0.048339843750000,
        0.051239013671875,
        0.053710937500000,
        0.055969238281250,
        0.057495117187500,
        0.058349609375000,
        0.056884765625000,
        0.053070068359375,
        0.048492431640625,
        0.044036865234375,
        0.040252685546875,
        0.035919189453125,
        0.032226562500000,
        0.030090332031250,
        0.029754638671875,
        0.027923583984375,
        0.024536132812500,
        0.020263671875000,
        0.017028808593750,
        0.014495849609375,
        0.011291503906250,
        0.005828857421875,
        -0.001373291015625,
        -0.008758544921875,
        -0.014343261718750,
        -0.016082763671875,
        -0.014312744140625,
        -0.010223388671875,
        -0.007537841796875,
        -0.007537841796875,
        -0.009674072265625,
        -0.012786865234375,
        -0.016235351562500,
        -0.020904541015625,
        -0.027130126953125,
        -0.035369873046875,
        -0.042938232421875,
        -0.048675537109375,
        -0.051391601562500,
        -0.051971435546875,
        -0.052154541015625,
        -0.053588867187500,
        -0.056243896484375,
        -0.057556152343750,
        -0.056793212890625,
        -0.053344726562500,
        -0.049285888671875,
        -0.047271728515625,
        -0.047576904296875,
        -0.050476074218750,
        -0.055175781250000,
        -0.062042236328125,
        -0.069396972656250,
        -0.075317382812500,
        -0.078674316406250,
        -0.079711914062500,
        -0.079071044921875,
        -0.077606201171875,
        -0.074676513671875,
        -0.071044921875000,
        -0.067230224609375,
        -0.064971923828125,
        -0.063964843750000,
        -0.062469482421875,
        -0.057800292968750,
        -0.047973632812500,
        -0.034667968750000,
        -0.022003173828125,
        -0.013549804687500,
        -0.009521484375000,
        -0.008758544921875,
        -0.008728027343750,
        -0.008056640625000,
        -0.005126953125000,
        0.000671386718750,
        0.008270263671875,
        0.015380859375000,
        0.019744873046875,
        0.020782470703125,
        0.018585205078125,
        0.014099121093750,
        0.009643554687500,
        0.007629394531250,
        0.008819580078125,
        0.012298583984375,
        0.017028808593750,
        0.022857666015625,
        0.029144287109375,
        0.033111572265625,
        0.032928466796875,
        0.029144287109375,
        0.023773193359375,
        0.017730712890625,
        0.011810302734375,
        0.007476806640625,
        0.008056640625000,
        0.012573242187500,
        0.017822265625000,
        0.020111083984375,
        0.019714355468750,
        0.019165039062500,
        0.019195556640625,
        0.018798828125000,
        0.017700195312500,
        0.015930175781250,
        0.013916015625000,
        0.010864257812500,
        0.007843017578125,
        0.007171630859375,
        0.009490966796875,
        0.012237548828125,
        0.013824462890625,
        0.015441894531250,
        0.019927978515625,
        0.027496337890625,
        0.036010742187500,
        0.041412353515625,
        0.042846679687500,
        0.041961669921875,
        0.040130615234375,
        0.038024902343750,
        0.034942626953125,
        0.031097412109375,
        0.026794433593750,
        0.021179199218750,
        0.014251708984375,
        0.006134033203125,
        -0.000457763671875,
        -0.004241943359375,
        -0.005645751953125,
        -0.007598876953125,
        -0.010375976562500,
        -0.012878417968750,
        -0.013824462890625,
        -0.012847900390625,
        -0.012786865234375,
        -0.014373779296875,
        -0.016418457031250,
        -0.016418457031250,
        -0.013488769531250,
        -0.008880615234375,
        -0.004211425781250,
        0.000366210937500,
        0.003692626953125,
        0.005096435546875,
        0.003814697265625,
        0.001312255859375,
        0.000000000000000,
        0.001281738281250,
        0.003967285156250,
        0.006774902343750,
        0.008300781250000,
        0.008575439453125,
        0.008636474609375,
        0.009490966796875,
        0.011169433593750,
        0.013336181640625,
        0.014892578125000,
        0.016113281250000,
        0.018341064453125,
        0.022125244140625,
        0.026580810546875,
        0.028594970703125,
        0.027160644531250,
        0.022460937500000,
        0.017364501953125,
        0.013732910156250,
        0.012603759765625,
        0.014129638671875,
        0.016876220703125,
        0.019287109375000,
        0.019531250000000,
        0.016876220703125,
        0.012939453125000,
        0.008758544921875,
        0.005187988281250,
        0.002838134765625,
        0.003540039062500,
        0.006988525390625,
        0.011444091796875,
        0.015319824218750,
        0.016601562500000,
        0.016296386718750,
        0.014343261718750,
        0.010986328125000,
        0.006866455078125,
        0.003875732421875,
        0.004150390625000,
        0.006622314453125,
        0.009185791015625,
        0.010223388671875,
        0.009094238281250,
        0.006774902343750,
        0.002532958984375,
        -0.002014160156250,
        -0.005950927734375,
        -0.008148193359375,
        -0.009216308593750,
        -0.010131835937500,
        -0.011566162109375,
        -0.012023925781250,
        -0.011962890625000,
        -0.010864257812500,
        -0.010345458984375,
        -0.010192871093750,
        -0.009979248046875,
        -0.008758544921875,
        -0.006683349609375,
        -0.005676269531250,
        -0.006164550781250,
        -0.007751464843750,
        -0.009460449218750,
        -0.012054443359375,
        -0.015930175781250,
        -0.020996093750000,
        -0.025573730468750,
        -0.028900146484375,
        -0.032104492187500,
        -0.034729003906250,
        -0.038177490234375,
        -0.041015625000000,
        -0.043212890625000,
        -0.044128417968750,
        -0.044799804687500,
        -0.046478271484375,
        -0.049163818359375,
        -0.050720214843750,
        -0.049774169921875,
        -0.045288085937500,
        -0.041107177734375,
        -0.037506103515625,
        -0.034606933593750,
        -0.031005859375000,
        -0.027221679687500,
        -0.024871826171875,
        -0.025268554687500,
        -0.026367187500000,
        -0.026184082031250,
        -0.024658203125000,
        -0.023925781250000,
        -0.024719238281250,
        -0.025756835937500,
        -0.024169921875000,
        -0.019500732421875,
        -0.013488769531250,
        -0.009429931640625,
        -0.007690429687500,
        -0.007354736328125,
        -0.006530761718750,
        -0.005401611328125,
        -0.004577636718750,
        -0.003387451171875,
        -0.001831054687500,
        0.000122070312500,
        0.001098632812500,
        0.000091552734375,
        -0.000946044921875,
        -0.001983642578125,
        -0.002532958984375,
        -0.003936767578125,
        -0.005126953125000,
        -0.005432128906250,
        -0.003417968750000,
        0.000183105468750,
        0.003875732421875,
        0.007110595703125,
        0.010040283203125,
        0.011962890625000,
        0.012969970703125,
        0.013641357421875,
        0.015563964843750,
        0.020080566406250,
        0.026062011718750,
        0.032073974609375,
        0.036346435546875,
        0.039428710937500,
        0.042175292968750,
        0.045288085937500,
        0.047576904296875,
        0.048858642578125,
        0.047637939453125,
        0.045440673828125,
        0.041442871093750,
        0.037048339843750,
        0.032379150390625,
        0.029296875000000,
        0.028045654296875,
        0.028594970703125,
        0.029998779296875,
        0.030822753906250,
        0.029693603515625,
        0.026153564453125,
        0.021636962890625,
        0.016845703125000,
        0.013824462890625,
        0.012298583984375,
        0.012115478515625,
        0.012573242187500,
        0.013549804687500,
        0.014739990234375,
        0.016571044921875,
        0.020172119140625,
        0.024414062500000,
        0.027984619140625,
        0.029174804687500,
        0.027069091796875,
        0.022888183593750,
        0.017303466796875,
        0.012542724609375,
        0.009246826171875,
        0.009002685546875,
        0.010620117187500,
        0.012359619140625,
        0.012573242187500,
        0.012359619140625,
        0.011749267578125,
        0.011169433593750,
        0.009155273437500,
        0.006134033203125,
        0.003509521484375,
        0.002014160156250,
        0.001434326171875,
        0.000793457031250,
        -0.000122070312500,
        -0.001190185546875,
        -0.001617431640625,
        -0.001892089843750,
        -0.003204345703125,
        -0.006622314453125,
        -0.011871337890625,
        -0.017364501953125,
        -0.021942138671875,
        -0.024719238281250,
        -0.025421142578125,
        -0.024200439453125,
        -0.021545410156250,
        -0.017913818359375,
        -0.015136718750000,
        -0.012908935546875,
        -0.011627197265625,
        -0.009948730468750,
        -0.009490966796875,
        -0.008941650390625,
        -0.009033203125000,
        -0.008697509765625,
        -0.008636474609375,
        -0.008789062500000,
        -0.008392333984375,
        -0.007202148437500,
        -0.005767822265625,
        -0.005371093750000,
        -0.007598876953125,
        -0.010040283203125,
        -0.012054443359375,
        -0.011901855468750,
        -0.010894775390625,
        -0.008453369140625,
        -0.005462646484375,
        -0.002471923828125,
        -0.001678466796875,
        -0.002502441406250,
        -0.005126953125000,
        -0.007720947265625,
        -0.009948730468750,
        -0.012054443359375,
        -0.014068603515625,
        -0.015380859375000,
        -0.015319824218750,
        -0.014526367187500,
        -0.013305664062500,
        -0.011901855468750,
        -0.010925292968750,
        -0.011413574218750,
        -0.013214111328125,
        -0.015411376953125,
        -0.015899658203125,
        -0.014343261718750,
        -0.011871337890625,
        -0.010375976562500,
        -0.010528564453125,
        -0.011688232421875,
        -0.013244628906250,
        -0.014068603515625,
        -0.013000488281250,
        -0.010162353515625,
        -0.005432128906250,
        -0.001068115234375,
        0.001922607421875,
        0.002563476562500,
        0.001678466796875,
        -0.000030517578125,
        -0.001525878906250,
        -0.002075195312500,
        -0.001953125000000,
        -0.002105712890625,
        -0.002563476562500,
        -0.002777099609375,
        -0.002105712890625,
        -0.001129150390625,
        -0.001220703125000,
        -0.003051757812500,
        -0.006500244140625,
        -0.010009765625000,
        -0.013153076171875,
        -0.014862060546875,
        -0.015655517578125,
        -0.015838623046875,
        -0.015594482421875,
        -0.013885498046875,
        -0.011047363281250,
        -0.008514404296875,
        -0.008666992187500,
        -0.011383056640625,
        -0.015045166015625,
        -0.017089843750000,
        -0.017120361328125,
        -0.016082763671875,
        -0.014312744140625,
        -0.013061523437500,
        -0.011199951171875,
        -0.010589599609375,
        -0.010131835937500,
        -0.009948730468750,
        -0.008636474609375,
        -0.006774902343750,
        -0.004119873046875,
        -0.001403808593750,
        0.001068115234375,
        0.003417968750000,
        0.005889892578125,
        0.009124755859375,
        0.012359619140625,
        0.014617919921875,
        0.015380859375000,
        0.013824462890625,
        0.011474609375000,
        0.009277343750000,
        0.008361816406250,
        0.009796142578125,
        0.011688232421875,
        0.012817382812500,
        0.012573242187500,
        0.011352539062500,
        0.009765625000000,
        0.009063720703125,
        0.008666992187500,
        0.009490966796875,
        0.010864257812500,
        0.013763427734375,
        0.016326904296875,
        0.018402099609375,
        0.019287109375000,
        0.019195556640625,
        0.018371582031250,
        0.017669677734375,
        0.016204833984375,
        0.015716552734375,
        0.015258789062500,
        0.015563964843750,
        0.016204833984375,
        0.017547607421875,
        0.018920898437500,
        0.020507812500000,
        0.021514892578125,
        0.023071289062500,
        0.024902343750000,
        0.027069091796875,
        0.028503417968750,
        0.029205322265625,
        0.028747558593750,
        0.027648925781250,
        0.026092529296875,
        0.024322509765625,
        0.022918701171875,
