// This file was automatically generated
#ifndef IMPULSE_DATA_H
#define IMPULSE_DATA
const unsigned int PC_KERNEL_SIZE = 512;
const double pc_kernel[] = {
    0.0010986328 ,
    0.00082397461 ,
    0.0019226074 ,
    0.004486084 ,
    0.0039672852 ,
    0.00045776367 ,
    -0.009185791 ,
    -0.018493652 ,
    -0.047363281 ,
    -0.077575684 ,
    -0.12625122 ,
    -0.14151001 ,
    -0.16101074 ,
    -0.14492798 ,
    -0.14144897 ,
    -0.13568115 ,
    -0.18273926 ,
    -0.2723999 ,
    -0.35107422 ,
    -0.44955444 ,
    -0.43725586 ,
    -0.42547607 ,
    -0.30529785 ,
    -0.28265381 ,
    -0.20516968 ,
    -0.17977905 ,
    -0.13186646 ,
    -0.016693115 ,
    0.083312988 ,
    0.23318481 ,
    0.31054688 ,
    0.39633179 ,
    0.43841553 ,
    0.51916504 ,
    0.61727905 ,
    0.72647095 ,
    0.83984375 ,
    0.92150879 ,
    0.94659424 ,
    0.91235352 ,
    0.85751343 ,
    0.77407837 ,
    0.69580078 ,
    0.6578064 ,
    0.60717773 ,
    0.54782104 ,
    0.45306396 ,
    0.33432007 ,
    0.20803833 ,
    0.095367432 ,
    0.027130127 ,
    -0.010253906 ,
    -0.03414917 ,
    -0.075531006 ,
    -0.12792969 ,
    -0.17242432 ,
    -0.21060181 ,
    -0.25759888 ,
    -0.28466797 ,
    -0.32580566 ,
    -0.37078857 ,
    -0.41781616 ,
    -0.45053101 ,
    -0.46838379 ,
    -0.4805603 ,
    -0.48684692 ,
    -0.49761963 ,
    -0.52618408 ,
    -0.55453491 ,
    -0.57870483 ,
    -0.60253906 ,
    -0.61773682 ,
    -0.64758301 ,
    -0.67858887 ,
    -0.71990967 ,
    -0.74969482 ,
    -0.75817871 ,
    -0.72802734 ,
    -0.65542603 ,
    -0.58206177 ,
    -0.52688599 ,
    -0.50888062 ,
    -0.51568604 ,
    -0.51602173 ,
    -0.48846436 ,
    -0.43139648 ,
    -0.34906006 ,
    -0.262146 ,
    -0.18322754 ,
    -0.125 ,
    -0.071380615 ,
    -0.017883301 ,
    0.04486084 ,
    0.12283325 ,
    0.20089722 ,
    0.25875854 ,
    0.30221558 ,
    0.34429932 ,
    0.38452148 ,
    0.44393921 ,
    0.50820923 ,
    0.58535767 ,
    0.64752197 ,
    0.68667603 ,
    0.70031738 ,
    0.68884277 ,
    0.66757202 ,
    0.64144897 ,
    0.61767578 ,
    0.59338379 ,
    0.55322266 ,
    0.48950195 ,
    0.4078064 ,
    0.30374146 ,
    0.20654297 ,
    0.11712646 ,
    0.054931641 ,
    0.013580322 ,
    -0.01550293 ,
    -0.028747559 ,
    -0.030975342 ,
    -0.011993408 ,
    0.010437012 ,
    0.041473389 ,
    0.063354492 ,
    0.076477051 ,
    0.082397461 ,
    0.10479736 ,
    0.14767456 ,
    0.21246338 ,
    0.28540039 ,
    0.34457397 ,
    0.38552856 ,
    0.39022827 ,
    0.37506104 ,
    0.34442139 ,
    0.30923462 ,
    0.27523804 ,
    0.24914551 ,
    0.22827148 ,
    0.20321655 ,
    0.16394043 ,
    0.11245728 ,
    0.049987793 ,
    -0.015319824 ,
    -0.071350098 ,
    -0.11959839 ,
    -0.1539917 ,
    -0.18829346 ,
    -0.22216797 ,
    -0.25369263 ,
    -0.27679443 ,
    -0.29379272 ,
    -0.30130005 ,
    -0.30310059 ,
    -0.30508423 ,
    -0.31704712 ,
    -0.34091187 ,
    -0.36856079 ,
    -0.40158081 ,
    -0.42855835 ,
    -0.45330811 ,
    -0.4677124 ,
    -0.4786377 ,
    -0.48583984 ,
    -0.48788452 ,
    -0.47860718 ,
    -0.4593811 ,
    -0.43478394 ,
    -0.40438843 ,
    -0.36624146 ,
    -0.32437134 ,
    -0.28042603 ,
    -0.23080444 ,
    -0.18356323 ,
    -0.13604736 ,
    -0.096740723 ,
    -0.05947876 ,
    -0.026062012 ,
    0.0037841797 ,
    0.024627686 ,
    0.040649414 ,
    0.054931641 ,
    0.070739746 ,
    0.096374512 ,
    0.12820435 ,
    0.16937256 ,
    0.20098877 ,
    0.22967529 ,
    0.25228882 ,
    0.27694702 ,
    0.30136108 ,
    0.32666016 ,
    0.34896851 ,
    0.36224365 ,
    0.36978149 ,
    0.37054443 ,
    0.3729248 ,
    0.37072754 ,
    0.36514282 ,
    0.35159302 ,
    0.33544922 ,
    0.31231689 ,
    0.28866577 ,
    0.26538086 ,
    0.24453735 ,
    0.22317505 ,
    0.19943237 ,
    0.18026733 ,
    0.16094971 ,
    0.14883423 ,
    0.13824463 ,
    0.13589478 ,
    0.12719727 ,
    0.11331177 ,
    0.088317871 ,
    0.055877686 ,
    0.010925293 ,
    -0.041992188 ,
    -0.097106934 ,
    -0.14324951 ,
    -0.17907715 ,
    -0.20657349 ,
    -0.22766113 ,
    -0.25485229 ,
    -0.28918457 ,
    -0.33099365 ,
    -0.36779785 ,
    -0.39831543 ,
    -0.41964722 ,
    -0.43817139 ,
    -0.44995117 ,
    -0.45822144 ,
    -0.45535278 ,
    -0.44082642 ,
    -0.41485596 ,
    -0.38323975 ,
    -0.3520813 ,
    -0.32699585 ,
    -0.30758667 ,
    -0.28121948 ,
    -0.25881958 ,
    -0.2265625 ,
    -0.19882202 ,
    -0.16308594 ,
    -0.13330078 ,
    -0.093902588 ,
    -0.041625977 ,
    0.0047607422 ,
    0.058013916 ,
    0.094665527 ,
    0.12554932 ,
    0.14266968 ,
    0.16116333 ,
    0.18609619 ,
    0.22253418 ,
    0.26782227 ,
    0.30541992 ,
    0.3369751 ,
    0.35083008 ,
    0.34960938 ,
    0.3314209 ,
    0.31063843 ,
    0.28433228 ,
    0.25546265 ,
    0.23052979 ,
    0.20529175 ,
    0.18182373 ,
    0.15890503 ,
    0.13754272 ,
    0.12097168 ,
    0.10696411 ,
    0.097473145 ,
    0.09576416 ,
    0.09866333 ,
    0.11026001 ,
    0.12268066 ,
    0.14266968 ,
    0.16491699 ,
    0.18496704 ,
    0.203125 ,
    0.21774292 ,
    0.22705078 ,
    0.22991943 ,
    0.23153687 ,
    0.22918701 ,
    0.2197876 ,
    0.19790649 ,
    0.16705322 ,
    0.12637329 ,
    0.086029053 ,
    0.046264648 ,
    0.011810303 ,
    -0.019165039 ,
    -0.052520752 ,
    -0.087493896 ,
    -0.12561035 ,
    -0.15905762 ,
    -0.18933105 ,
    -0.21325684 ,
    -0.23440552 ,
    -0.25497437 ,
    -0.28186035 ,
    -0.3067627 ,
    -0.32971191 ,
    -0.3427124 ,
    -0.34265137 ,
    -0.33300781 ,
    -0.31460571 ,
    -0.2980957 ,
    -0.28317261 ,
    -0.27536011 ,
    -0.26696777 ,
    -0.25924683 ,
    -0.24673462 ,
    -0.23001099 ,
    -0.20541382 ,
    -0.17944336 ,
    -0.15078735 ,
    -0.11691284 ,
    -0.079559326 ,
    -0.038818359 ,
    0 ,
    0.039215088 ,
    0.07409668 ,
    0.10415649 ,
    0.12841797 ,
    0.15002441 ,
    0.16830444 ,
    0.18527222 ,
    0.19946289 ,
    0.21438599 ,
    0.22735596 ,
    0.23443604 ,
    0.23864746 ,
    0.23577881 ,
    0.23278809 ,
    0.22576904 ,
    0.22058105 ,
    0.2166748 ,
    0.215271 ,
    0.21502686 ,
    0.21499634 ,
    0.21347046 ,
    0.20440674 ,
    0.18847656 ,
    0.16439819 ,
    0.13702393 ,
    0.10421753 ,
    0.074371338 ,
    0.044433594 ,
    0.017303467 ,
    -0.012329102 ,
    -0.043182373 ,
    -0.075042725 ,
    -0.10757446 ,
    -0.13806152 ,
    -0.16415405 ,
    -0.18493652 ,
    -0.20117188 ,
    -0.21368408 ,
    -0.22323608 ,
    -0.22769165 ,
    -0.23010254 ,
    -0.22546387 ,
    -0.21694946 ,
    -0.19937134 ,
    -0.17822266 ,
    -0.15390015 ,
    -0.12979126 ,
    -0.109375 ,
    -0.093994141 ,
    -0.082855225 ,
    -0.070007324 ,
    -0.055847168 ,
    -0.036804199 ,
    -0.017608643 ,
    0.0013427734 ,
    0.013214111 ,
    0.017303467 ,
    0.014373779 ,
    0.0057373047 ,
    -0.0048522949 ,
    -0.017974854 ,
    -0.029174805 ,
    -0.03894043 ,
    -0.045623779 ,
    -0.053009033 ,
    -0.0574646 ,
    -0.061767578 ,
    -0.063751221 ,
    -0.065734863 ,
    -0.063262939 ,
    -0.058441162 ,
    -0.051330566 ,
    -0.04309082 ,
    -0.036010742 ,
    -0.029846191 ,
    -0.028381348 ,
    -0.027130127 ,
    -0.027740479 ,
    -0.025268555 ,
    -0.022064209 ,
    -0.013671875 ,
    3.0517578e-05 ,
    0.016662598 ,
    0.039459229 ,
    0.061981201 ,
    0.089996338 ,
    0.11868286 ,
    0.14797974 ,
    0.17660522 ,
    0.20391846 ,
    0.22601318 ,
    0.2432251 ,
    0.25292969 ,
    0.25601196 ,
    0.25280762 ,
    0.24398804 ,
    0.23175049 ,
    0.21533203 ,
    0.19610596 ,
    0.17153931 ,
    0.14633179 ,
    0.11807251 ,
    0.091217041 ,
    0.064178467 ,
    0.040649414 ,
    0.017242432 ,
    -0.0057373047 ,
    -0.027160645 ,
    -0.046020508 ,
    -0.059570312 ,
    -0.069458008 ,
    -0.073638916 ,
    -0.074981689 ,
    -0.073364258 ,
    -0.07208252 ,
    -0.071014404 ,
    -0.071166992 ,
    -0.070373535 ,
    -0.069549561 ,
    -0.065429688 ,
    -0.059082031 ,
    -0.052307129 ,
    -0.045806885 ,
    -0.041351318 ,
    -0.037078857 ,
    -0.034912109 ,
    -0.030914307 ,
    -0.027252197 ,
    -0.023193359 ,
    -0.020904541 ,
    -0.018707275 ,
    -0.017425537 ,
    -0.015350342 ,
    -0.013305664 ,
    -0.010528564 ,
    -0.0058288574 ,
    0.00051879883 ,
    0.0079956055 ,
    0.016052246 ,
    0.024169922 ,
    0.028503418 ,
    0.030029297 ,
    0.026092529 ,
    0.019683838 ,
    0.0091247559 ,
    -0.0037231445 ,
    -0.017486572 ,
    -0.031219482 ,
    -0.043243408 ,
    -0.054199219 ,
    -0.061859131 ,
    -0.066864014 ,
    -0.068695068 ,
    -0.070343018 ,
    -0.070861816 ,
    -0.072692871 ,
    -0.076965332 ,
    -0.081848145 ,
    -0.085601807 ,
    -0.086975098 ,
    -0.084533691 ,
    -0.081329346 ,
    -0.079101562 ,
    -0.078308105 ,
    -0.077941895 ,
    -0.076843262 ,
    -0.07409668 ,
    -0.06942749 ,
    -0.064910889 ,
    -0.058776855 ,
    -0.052276611 ,
    -0.044036865 ,
    -0.035186768 ,
    -0.024230957 ,
    -0.012481689 ,
    -0.0010070801 ,
    0.010345459 ,
    0.019134521 ,
    0.026977539 ,
    0.032226562 ,
    0.035827637 ,
    0.03729248 ,
    0.036468506 ,
    0.033233643 ,
    0.027862549 ,
    0.021270752 ,
    0.013793945 ,
    0.0068054199 ,
    -0.00015258789 ,
};
#endif
